digraph Tree {
node [shape=box, style="filled, rounded", color="black", fontname="helvetica"] ;
edge [fontname="helvetica"] ;
0 [label=<Administrative &le; 0.5<br/>gini = 0.26<br/>samples = 5462<br/>value = [7307, 1324]<br/>class = No Purchase>, fillcolor="#ea985d"] ;
1 [label=<ProductRelated &le; 7.5<br/>gini = 0.15<br/>samples = 2522<br/>value = [3654, 326]<br/>class = No Purchase>, fillcolor="#e78c4b"] ;
0 -> 1 [labeldistance=2.5, labelangle=45, headlabel="True"] ;
2 [label=<PageValues &le; 5.904<br/>gini = 0.037<br/>samples = 1055<br/>value = [1652, 32]<br/>class = No Purchase>, fillcolor="#e6833d"] ;
1 -> 2 ;
3 [label=<TrafficType &le; 19.0<br/>gini = 0.007<br/>samples = 1039<br/>value = [1652, 6]<br/>class = No Purchase>, fillcolor="#e5813a"] ;
2 -> 3 ;
4 [label=<ProductRelated_Duration &le; 648.75<br/>gini = 0.006<br/>samples = 1010<br/>value = [1604, 5]<br/>class = No Purchase>, fillcolor="#e5813a"] ;
3 -> 4 ;
5 [label=<ExitRates &le; 0.104<br/>gini = 0.005<br/>samples = 971<br/>value = [1551, 4]<br/>class = No Purchase>, fillcolor="#e5813a"] ;
4 -> 5 ;
6 [label=<ProductRelated &le; 4.5<br/>gini = 0.009<br/>samples = 563<br/>value = [904, 4]<br/>class = No Purchase>, fillcolor="#e5823a"] ;
5 -> 6 ;
7 [label=<OperatingSystems &le; 1.5<br/>gini = 0.016<br/>samples = 316<br/>value = [493, 4]<br/>class = No Purchase>, fillcolor="#e5823b"] ;
6 -> 7 ;
8 [label=<ProductRelated &le; 3.5<br/>gini = 0.033<br/>samples = 78<br/>value = [117, 2]<br/>class = No Purchase>, fillcolor="#e5833c"] ;
7 -> 8 ;
9 [label=<gini = 0.0<br/>samples = 56<br/>value = [90, 0]<br/>class = No Purchase>, fillcolor="#e58139"] ;
8 -> 9 ;
10 [label=<Weekend &le; 0.5<br/>gini = 0.128<br/>samples = 22<br/>value = [27, 2]<br/>class = No Purchase>, fillcolor="#e78a48"] ;
8 -> 10 ;
11 [label=<ExitRates &le; 0.094<br/>gini = 0.087<br/>samples = 16<br/>value = [21, 1]<br/>class = No Purchase>, fillcolor="#e68742"] ;
10 -> 11 ;
12 [label=<gini = 0.0<br/>samples = 13<br/>value = [19, 0]<br/>class = No Purchase>, fillcolor="#e58139"] ;
11 -> 12 ;
13 [label=<TrafficType &le; 2.5<br/>gini = 0.444<br/>samples = 3<br/>value = [2, 1]<br/>class = No Purchase>, fillcolor="#f2c09c"] ;
11 -> 13 ;
14 [label=<gini = 0.0<br/>samples = 1<br/>value = [0, 1]<br/>class = Purchase>, fillcolor="#399de5"] ;
13 -> 14 ;
15 [label=<gini = 0.0<br/>samples = 2<br/>value = [2, 0]<br/>class = No Purchase>, fillcolor="#e58139"] ;
13 -> 15 ;
16 [label=<SpecialDay &le; 0.5<br/>gini = 0.245<br/>samples = 6<br/>value = [6, 1]<br/>class = No Purchase>, fillcolor="#e9965a"] ;
10 -> 16 ;
17 [label=<ExitRates &le; 0.038<br/>gini = 0.278<br/>samples = 5<br/>value = [5, 1]<br/>class = No Purchase>, fillcolor="#ea9a61"] ;
16 -> 17 ;
18 [label=<Month &le; 4.5<br/>gini = 0.444<br/>samples = 2<br/>value = [2, 1]<br/>class = No Purchase>, fillcolor="#f2c09c"] ;
17 -> 18 ;
19 [label=<gini = 0.0<br/>samples = 1<br/>value = [2, 0]<br/>class = No Purchase>, fillcolor="#e58139"] ;
18 -> 19 ;
20 [label=<gini = 0.0<br/>samples = 1<br/>value = [0, 1]<br/>class = Purchase>, fillcolor="#399de5"] ;
18 -> 20 ;
21 [label=<gini = 0.0<br/>samples = 3<br/>value = [3, 0]<br/>class = No Purchase>, fillcolor="#e58139"] ;
17 -> 21 ;
22 [label=<gini = 0.0<br/>samples = 1<br/>value = [1, 0]<br/>class = No Purchase>, fillcolor="#e58139"] ;
16 -> 22 ;
23 [label=<BounceRates &le; 0.058<br/>gini = 0.011<br/>samples = 238<br/>value = [376, 2]<br/>class = No Purchase>, fillcolor="#e5823a"] ;
7 -> 23 ;
24 [label=<Weekend &le; 0.5<br/>gini = 0.006<br/>samples = 225<br/>value = [358, 1]<br/>class = No Purchase>, fillcolor="#e5813a"] ;
23 -> 24 ;
25 [label=<gini = 0.0<br/>samples = 174<br/>value = [283, 0]<br/>class = No Purchase>, fillcolor="#e58139"] ;
24 -> 25 ;
26 [label=<Browser &le; 3.5<br/>gini = 0.026<br/>samples = 51<br/>value = [75, 1]<br/>class = No Purchase>, fillcolor="#e5833c"] ;
24 -> 26 ;
27 [label=<gini = 0.0<br/>samples = 38<br/>value = [56, 0]<br/>class = No Purchase>, fillcolor="#e58139"] ;
26 -> 27 ;
28 [label=<ProductRelated_Duration &le; 25.0<br/>gini = 0.095<br/>samples = 13<br/>value = [19, 1]<br/>class = No Purchase>, fillcolor="#e68843"] ;
26 -> 28 ;
29 [label=<gini = 0.0<br/>samples = 1<br/>value = [0, 1]<br/>class = Purchase>, fillcolor="#399de5"] ;
28 -> 29 ;
30 [label=<gini = 0.0<br/>samples = 12<br/>value = [19, 0]<br/>class = No Purchase>, fillcolor="#e58139"] ;
28 -> 30 ;
31 [label=<Month &le; 5.0<br/>gini = 0.1<br/>samples = 13<br/>value = [18, 1]<br/>class = No Purchase>, fillcolor="#e68844"] ;
23 -> 31 ;
32 [label=<gini = 0.0<br/>samples = 7<br/>value = [9, 0]<br/>class = No Purchase>, fillcolor="#e58139"] ;
31 -> 32 ;
33 [label=<ProductRelated_Duration &le; 66.333<br/>gini = 0.18<br/>samples = 6<br/>value = [9, 1]<br/>class = No Purchase>, fillcolor="#e88f4f"] ;
31 -> 33 ;
34 [label=<gini = 0.0<br/>samples = 3<br/>value = [6, 0]<br/>class = No Purchase>, fillcolor="#e58139"] ;
33 -> 34 ;
35 [label=<Region &le; 1.5<br/>gini = 0.375<br/>samples = 3<br/>value = [3, 1]<br/>class = No Purchase>, fillcolor="#eeab7b"] ;
33 -> 35 ;
36 [label=<gini = 0.0<br/>samples = 1<br/>value = [0, 1]<br/>class = Purchase>, fillcolor="#399de5"] ;
35 -> 36 ;
37 [label=<gini = 0.0<br/>samples = 2<br/>value = [3, 0]<br/>class = No Purchase>, fillcolor="#e58139"] ;
35 -> 37 ;
38 [label=<gini = 0.0<br/>samples = 247<br/>value = [411, 0]<br/>class = No Purchase>, fillcolor="#e58139"] ;
6 -> 38 ;
39 [label=<gini = 0.0<br/>samples = 408<br/>value = [647, 0]<br/>class = No Purchase>, fillcolor="#e58139"] ;
5 -> 39 ;
40 [label=<BounceRates &le; 0.028<br/>gini = 0.036<br/>samples = 39<br/>value = [53, 1]<br/>class = No Purchase>, fillcolor="#e5833d"] ;
4 -> 40 ;
41 [label=<gini = 0.0<br/>samples = 24<br/>value = [34, 0]<br/>class = No Purchase>, fillcolor="#e58139"] ;
40 -> 41 ;
42 [label=<TrafficType &le; 2.5<br/>gini = 0.095<br/>samples = 15<br/>value = [19, 1]<br/>class = No Purchase>, fillcolor="#e68843"] ;
40 -> 42 ;
43 [label=<Region &le; 3.0<br/>gini = 0.245<br/>samples = 5<br/>value = [6, 1]<br/>class = No Purchase>, fillcolor="#e9965a"] ;
42 -> 43 ;
44 [label=<gini = 0.0<br/>samples = 4<br/>value = [6, 0]<br/>class = No Purchase>, fillcolor="#e58139"] ;
43 -> 44 ;
45 [label=<gini = 0.0<br/>samples = 1<br/>value = [0, 1]<br/>class = Purchase>, fillcolor="#399de5"] ;
43 -> 45 ;
46 [label=<gini = 0.0<br/>samples = 10<br/>value = [13, 0]<br/>class = No Purchase>, fillcolor="#e58139"] ;
42 -> 46 ;
47 [label=<ExitRates &le; 0.193<br/>gini = 0.04<br/>samples = 29<br/>value = [48.0, 1.0]<br/>class = No Purchase>, fillcolor="#e6843d"] ;
3 -> 47 ;
48 [label=<gini = 0.0<br/>samples = 20<br/>value = [33, 0]<br/>class = No Purchase>, fillcolor="#e58139"] ;
47 -> 48 ;
49 [label=<Weekend &le; 0.5<br/>gini = 0.117<br/>samples = 9<br/>value = [15, 1]<br/>class = No Purchase>, fillcolor="#e78946"] ;
47 -> 49 ;
50 [label=<VisitorType &le; 1.0<br/>gini = 0.142<br/>samples = 8<br/>value = [12, 1]<br/>class = No Purchase>, fillcolor="#e78c49"] ;
49 -> 50 ;
51 [label=<OperatingSystems &le; 1.5<br/>gini = 0.165<br/>samples = 6<br/>value = [10, 1]<br/>class = No Purchase>, fillcolor="#e88e4d"] ;
50 -> 51 ;
52 [label=<gini = 0.0<br/>samples = 3<br/>value = [7, 0]<br/>class = No Purchase>, fillcolor="#e58139"] ;
51 -> 52 ;
53 [label=<Browser &le; 3.5<br/>gini = 0.375<br/>samples = 3<br/>value = [3, 1]<br/>class = No Purchase>, fillcolor="#eeab7b"] ;
51 -> 53 ;
54 [label=<gini = 0.0<br/>samples = 1<br/>value = [2, 0]<br/>class = No Purchase>, fillcolor="#e58139"] ;
53 -> 54 ;
55 [label=<Browser &le; 9.0<br/>gini = 0.5<br/>samples = 2<br/>value = [1, 1]<br/>class = No Purchase>, fillcolor="#ffffff"] ;
53 -> 55 ;
56 [label=<gini = 0.0<br/>samples = 1<br/>value = [0, 1]<br/>class = Purchase>, fillcolor="#399de5"] ;
55 -> 56 ;
57 [label=<gini = 0.0<br/>samples = 1<br/>value = [1, 0]<br/>class = No Purchase>, fillcolor="#e58139"] ;
55 -> 57 ;
58 [label=<gini = 0.0<br/>samples = 2<br/>value = [2, 0]<br/>class = No Purchase>, fillcolor="#e58139"] ;
50 -> 58 ;
59 [label=<gini = 0.0<br/>samples = 1<br/>value = [3, 0]<br/>class = No Purchase>, fillcolor="#e58139"] ;
49 -> 59 ;
60 [label=<gini = 0.0<br/>samples = 16<br/>value = [0, 26]<br/>class = Purchase>, fillcolor="#399de5"] ;
2 -> 60 ;
61 [label=<ExitRates &le; 0.018<br/>gini = 0.223<br/>samples = 1467<br/>value = [2002, 294]<br/>class = No Purchase>, fillcolor="#e99456"] ;
1 -> 61 ;
62 [label=<ExitRates &le; 0.002<br/>gini = 0.396<br/>samples = 421<br/>value = [476, 178]<br/>class = No Purchase>, fillcolor="#efb083"] ;
61 -> 62 ;
63 [label=<PageValues &le; 15.153<br/>gini = 0.413<br/>samples = 18<br/>value = [7, 17]<br/>class = Purchase>, fillcolor="#8bc5f0"] ;
62 -> 63 ;
64 [label=<gini = 0.0<br/>samples = 6<br/>value = [7, 0]<br/>class = No Purchase>, fillcolor="#e58139"] ;
63 -> 64 ;
65 [label=<gini = 0.0<br/>samples = 12<br/>value = [0, 17]<br/>class = Purchase>, fillcolor="#399de5"] ;
63 -> 65 ;
66 [label=<OperatingSystems &le; 1.5<br/>gini = 0.38<br/>samples = 403<br/>value = [469, 161]<br/>class = No Purchase>, fillcolor="#eeac7d"] ;
62 -> 66 ;
67 [label=<ProductRelated &le; 20.5<br/>gini = 0.231<br/>samples = 82<br/>value = [117, 18]<br/>class = No Purchase>, fillcolor="#e99457"] ;
66 -> 67 ;
68 [label=<Browser &le; 5.0<br/>gini = 0.081<br/>samples = 42<br/>value = [68, 3]<br/>class = No Purchase>, fillcolor="#e68742"] ;
67 -> 68 ;
69 [label=<BounceRates &le; 0.002<br/>gini = 0.059<br/>samples = 37<br/>value = [64, 2]<br/>class = No Purchase>, fillcolor="#e6853f"] ;
68 -> 69 ;
70 [label=<ExitRates &le; 0.015<br/>gini = 0.081<br/>samples = 26<br/>value = [45, 2]<br/>class = No Purchase>, fillcolor="#e68742"] ;
69 -> 70 ;
71 [label=<gini = 0.0<br/>samples = 20<br/>value = [38, 0]<br/>class = No Purchase>, fillcolor="#e58139"] ;
70 -> 71 ;
72 [label=<ExitRates &le; 0.016<br/>gini = 0.346<br/>samples = 6<br/>value = [7, 2]<br/>class = No Purchase>, fillcolor="#eca572"] ;
70 -> 72 ;
73 [label=<gini = 0.0<br/>samples = 2<br/>value = [0, 2]<br/>class = Purchase>, fillcolor="#399de5"] ;
72 -> 73 ;
74 [label=<gini = 0.0<br/>samples = 4<br/>value = [7, 0]<br/>class = No Purchase>, fillcolor="#e58139"] ;
72 -> 74 ;
75 [label=<gini = 0.0<br/>samples = 11<br/>value = [19, 0]<br/>class = No Purchase>, fillcolor="#e58139"] ;
69 -> 75 ;
76 [label=<PageValues &le; 46.47<br/>gini = 0.32<br/>samples = 5<br/>value = [4, 1]<br/>class = No Purchase>, fillcolor="#eca06a"] ;
68 -> 76 ;
77 [label=<gini = 0.0<br/>samples = 4<br/>value = [4, 0]<br/>class = No Purchase>, fillcolor="#e58139"] ;
76 -> 77 ;
78 [label=<gini = 0.0<br/>samples = 1<br/>value = [0, 1]<br/>class = Purchase>, fillcolor="#399de5"] ;
76 -> 78 ;
79 [label=<ProductRelated_Duration &le; 346.277<br/>gini = 0.359<br/>samples = 40<br/>value = [49, 15]<br/>class = No Purchase>, fillcolor="#eda876"] ;
67 -> 79 ;
80 [label=<gini = 0.0<br/>samples = 1<br/>value = [0, 2]<br/>class = Purchase>, fillcolor="#399de5"] ;
79 -> 80 ;
81 [label=<PageValues &le; 2.579<br/>gini = 0.331<br/>samples = 39<br/>value = [49, 13]<br/>class = No Purchase>, fillcolor="#eca26e"] ;
79 -> 81 ;
82 [label=<Region &le; 1.5<br/>gini = 0.177<br/>samples = 31<br/>value = [46, 5]<br/>class = No Purchase>, fillcolor="#e88f4f"] ;
81 -> 82 ;
83 [label=<VisitorType &le; 0.5<br/>gini = 0.302<br/>samples = 15<br/>value = [22, 5]<br/>class = No Purchase>, fillcolor="#eb9e66"] ;
82 -> 83 ;
84 [label=<BounceRates &le; 0.003<br/>gini = 0.165<br/>samples = 13<br/>value = [20, 2]<br/>class = No Purchase>, fillcolor="#e88e4d"] ;
83 -> 84 ;
85 [label=<gini = 0.0<br/>samples = 7<br/>value = [12, 0]<br/>class = No Purchase>, fillcolor="#e58139"] ;
84 -> 85 ;
86 [label=<ProductRelated &le; 56.5<br/>gini = 0.32<br/>samples = 6<br/>value = [8, 2]<br/>class = No Purchase>, fillcolor="#eca06a"] ;
84 -> 86 ;
87 [label=<gini = 0.0<br/>samples = 5<br/>value = [8, 0]<br/>class = No Purchase>, fillcolor="#e58139"] ;
86 -> 87 ;
88 [label=<gini = 0.0<br/>samples = 1<br/>value = [0, 2]<br/>class = Purchase>, fillcolor="#399de5"] ;
86 -> 88 ;
89 [label=<Weekend &le; 0.5<br/>gini = 0.48<br/>samples = 2<br/>value = [2, 3]<br/>class = Purchase>, fillcolor="#bddef6"] ;
83 -> 89 ;
90 [label=<gini = 0.0<br/>samples = 1<br/>value = [2, 0]<br/>class = No Purchase>, fillcolor="#e58139"] ;
89 -> 90 ;
91 [label=<gini = 0.0<br/>samples = 1<br/>value = [0, 3]<br/>class = Purchase>, fillcolor="#399de5"] ;
89 -> 91 ;
92 [label=<gini = 0.0<br/>samples = 16<br/>value = [24, 0]<br/>class = No Purchase>, fillcolor="#e58139"] ;
82 -> 92 ;
93 [label=<BounceRates &le; 0.006<br/>gini = 0.397<br/>samples = 8<br/>value = [3, 8]<br/>class = Purchase>, fillcolor="#83c2ef"] ;
81 -> 93 ;
94 [label=<gini = 0.0<br/>samples = 6<br/>value = [0, 8]<br/>class = Purchase>, fillcolor="#399de5"] ;
93 -> 94 ;
95 [label=<gini = 0.0<br/>samples = 2<br/>value = [3, 0]<br/>class = No Purchase>, fillcolor="#e58139"] ;
93 -> 95 ;
96 [label=<ProductRelated &le; 140.5<br/>gini = 0.411<br/>samples = 321<br/>value = [352, 143]<br/>class = No Purchase>, fillcolor="#f0b489"] ;
66 -> 96 ;
97 [label=<Month &le; 2.5<br/>gini = 0.405<br/>samples = 317<br/>value = [351, 138]<br/>class = No Purchase>, fillcolor="#efb387"] ;
96 -> 97 ;
98 [label=<ProductRelated_Duration &le; 311.767<br/>gini = 0.326<br/>samples = 136<br/>value = [155, 40]<br/>class = No Purchase>, fillcolor="#eca26c"] ;
97 -> 98 ;
99 [label=<gini = 0.0<br/>samples = 18<br/>value = [29, 0]<br/>class = No Purchase>, fillcolor="#e58139"] ;
98 -> 99 ;
100 [label=<BounceRates &le; 0.006<br/>gini = 0.366<br/>samples = 118<br/>value = [126, 40]<br/>class = No Purchase>, fillcolor="#eda978"] ;
98 -> 100 ;
101 [label=<VisitorType &le; 0.5<br/>gini = 0.396<br/>samples = 107<br/>value = [107.0, 40.0]<br/>class = No Purchase>, fillcolor="#efb083"] ;
100 -> 101 ;
102 [label=<TrafficType &le; 16.5<br/>gini = 0.354<br/>samples = 93<br/>value = [97, 29]<br/>class = No Purchase>, fillcolor="#eda774"] ;
101 -> 102 ;
103 [label=<ExitRates &le; 0.003<br/>gini = 0.341<br/>samples = 92<br/>value = [97, 27]<br/>class = No Purchase>, fillcolor="#eca470"] ;
102 -> 103 ;
104 [label=<gini = 0.0<br/>samples = 1<br/>value = [0, 2]<br/>class = Purchase>, fillcolor="#399de5"] ;
103 -> 104 ;
105 [label=<ProductRelated_Duration &le; 359.758<br/>gini = 0.326<br/>samples = 91<br/>value = [97, 25]<br/>class = No Purchase>, fillcolor="#eca16c"] ;
103 -> 105 ;
106 [label=<Browser &le; 3.0<br/>gini = 0.375<br/>samples = 4<br/>value = [1, 3]<br/>class = Purchase>, fillcolor="#7bbeee"] ;
105 -> 106 ;
107 [label=<Weekend &le; 0.5<br/>gini = 0.444<br/>samples = 3<br/>value = [1, 2]<br/>class = Purchase>, fillcolor="#9ccef2"] ;
106 -> 107 ;
108 [label=<TrafficType &le; 4.0<br/>gini = 0.5<br/>samples = 2<br/>value = [1, 1]<br/>class = No Purchase>, fillcolor="#ffffff"] ;
107 -> 108 ;
109 [label=<gini = 0.0<br/>samples = 1<br/>value = [1, 0]<br/>class = No Purchase>, fillcolor="#e58139"] ;
108 -> 109 ;
110 [label=<gini = 0.0<br/>samples = 1<br/>value = [0, 1]<br/>class = Purchase>, fillcolor="#399de5"] ;
108 -> 110 ;
111 [label=<gini = 0.0<br/>samples = 1<br/>value = [0, 1]<br/>class = Purchase>, fillcolor="#399de5"] ;
107 -> 111 ;
112 [label=<gini = 0.0<br/>samples = 1<br/>value = [0, 1]<br/>class = Purchase>, fillcolor="#399de5"] ;
106 -> 112 ;
113 [label=<BounceRates &le; 0.006<br/>gini = 0.303<br/>samples = 87<br/>value = [96, 22]<br/>class = No Purchase>, fillcolor="#eb9e66"] ;
105 -> 113 ;
114 [label=<PageValues &le; 1.353<br/>gini = 0.287<br/>samples = 85<br/>value = [95, 20]<br/>class = No Purchase>, fillcolor="#ea9c63"] ;
113 -> 114 ;
115 [label=<gini = 0.0<br/>samples = 64<br/>value = [86, 0]<br/>class = No Purchase>, fillcolor="#e58139"] ;
114 -> 115 ;
116 [label=<Region &le; 1.5<br/>gini = 0.428<br/>samples = 21<br/>value = [9, 20]<br/>class = Purchase>, fillcolor="#92c9f1"] ;
114 -> 116 ;
117 [label=<gini = 0.0<br/>samples = 7<br/>value = [0, 9]<br/>class = Purchase>, fillcolor="#399de5"] ;
116 -> 117 ;
118 [label=<Informational_Duration &le; 60.333<br/>gini = 0.495<br/>samples = 14<br/>value = [9, 11]<br/>class = Purchase>, fillcolor="#dbedfa"] ;
116 -> 118 ;
119 [label=<SpecialDay &le; 0.1<br/>gini = 0.498<br/>samples = 10<br/>value = [8, 7]<br/>class = No Purchase>, fillcolor="#fcefe6"] ;
118 -> 119 ;
120 [label=<ExitRates &le; 0.012<br/>gini = 0.473<br/>samples = 9<br/>value = [8, 5]<br/>class = No Purchase>, fillcolor="#f5d0b5"] ;
119 -> 120 ;
121 [label=<TrafficType &le; 3.0<br/>gini = 0.32<br/>samples = 4<br/>value = [1, 4]<br/>class = Purchase>, fillcolor="#6ab6ec"] ;
120 -> 121 ;
122 [label=<gini = 0.0<br/>samples = 1<br/>value = [1, 0]<br/>class = No Purchase>, fillcolor="#e58139"] ;
121 -> 122 ;
123 [label=<gini = 0.0<br/>samples = 3<br/>value = [0, 4]<br/>class = Purchase>, fillcolor="#399de5"] ;
121 -> 123 ;
124 [label=<ProductRelated_Duration &le; 2189.247<br/>gini = 0.219<br/>samples = 5<br/>value = [7, 1]<br/>class = No Purchase>, fillcolor="#e99355"] ;
120 -> 124 ;
125 [label=<gini = 0.0<br/>samples = 1<br/>value = [0, 1]<br/>class = Purchase>, fillcolor="#399de5"] ;
124 -> 125 ;
126 [label=<gini = 0.0<br/>samples = 4<br/>value = [7, 0]<br/>class = No Purchase>, fillcolor="#e58139"] ;
124 -> 126 ;
127 [label=<gini = 0.0<br/>samples = 1<br/>value = [0, 2]<br/>class = Purchase>, fillcolor="#399de5"] ;
119 -> 127 ;
128 [label=<ProductRelated_Duration &le; 1148.301<br/>gini = 0.32<br/>samples = 4<br/>value = [1, 4]<br/>class = Purchase>, fillcolor="#6ab6ec"] ;
118 -> 128 ;
129 [label=<gini = 0.0<br/>samples = 1<br/>value = [1, 0]<br/>class = No Purchase>, fillcolor="#e58139"] ;
128 -> 129 ;
130 [label=<gini = 0.0<br/>samples = 3<br/>value = [0, 4]<br/>class = Purchase>, fillcolor="#399de5"] ;
128 -> 130 ;
131 [label=<TrafficType &le; 1.5<br/>gini = 0.444<br/>samples = 2<br/>value = [1, 2]<br/>class = Purchase>, fillcolor="#9ccef2"] ;
113 -> 131 ;
132 [label=<gini = 0.0<br/>samples = 1<br/>value = [1, 0]<br/>class = No Purchase>, fillcolor="#e58139"] ;
131 -> 132 ;
133 [label=<gini = 0.0<br/>samples = 1<br/>value = [0, 2]<br/>class = Purchase>, fillcolor="#399de5"] ;
131 -> 133 ;
134 [label=<gini = 0.0<br/>samples = 1<br/>value = [0, 2]<br/>class = Purchase>, fillcolor="#399de5"] ;
102 -> 134 ;
135 [label=<Region &le; 1.5<br/>gini = 0.499<br/>samples = 14<br/>value = [10, 11]<br/>class = Purchase>, fillcolor="#edf6fd"] ;
101 -> 135 ;
136 [label=<gini = 0.0<br/>samples = 4<br/>value = [0, 7]<br/>class = Purchase>, fillcolor="#399de5"] ;
135 -> 136 ;
137 [label=<SpecialDay &le; 0.3<br/>gini = 0.408<br/>samples = 10<br/>value = [10, 4]<br/>class = No Purchase>, fillcolor="#efb388"] ;
135 -> 137 ;
138 [label=<PageValues &le; 11.517<br/>gini = 0.355<br/>samples = 9<br/>value = [10, 3]<br/>class = No Purchase>, fillcolor="#eda774"] ;
137 -> 138 ;
139 [label=<gini = 0.0<br/>samples = 6<br/>value = [10, 0]<br/>class = No Purchase>, fillcolor="#e58139"] ;
138 -> 139 ;
140 [label=<gini = 0.0<br/>samples = 3<br/>value = [0, 3]<br/>class = Purchase>, fillcolor="#399de5"] ;
138 -> 140 ;
141 [label=<gini = 0.0<br/>samples = 1<br/>value = [0, 1]<br/>class = Purchase>, fillcolor="#399de5"] ;
137 -> 141 ;
142 [label=<gini = 0.0<br/>samples = 11<br/>value = [19, 0]<br/>class = No Purchase>, fillcolor="#e58139"] ;
100 -> 142 ;
143 [label=<ExitRates &le; 0.004<br/>gini = 0.444<br/>samples = 181<br/>value = [196, 98]<br/>class = No Purchase>, fillcolor="#f2c09c"] ;
97 -> 143 ;
144 [label=<Informational_Duration &le; 21.2<br/>gini = 0.5<br/>samples = 12<br/>value = [11, 11]<br/>class = No Purchase>, fillcolor="#ffffff"] ;
143 -> 144 ;
145 [label=<PageValues &le; 4.212<br/>gini = 0.495<br/>samples = 11<br/>value = [9, 11]<br/>class = Purchase>, fillcolor="#dbedfa"] ;
144 -> 145 ;
146 [label=<TrafficType &le; 11.0<br/>gini = 0.298<br/>samples = 6<br/>value = [9, 2]<br/>class = No Purchase>, fillcolor="#eb9d65"] ;
145 -> 146 ;
147 [label=<gini = 0.0<br/>samples = 5<br/>value = [9, 0]<br/>class = No Purchase>, fillcolor="#e58139"] ;
146 -> 147 ;
148 [label=<gini = 0.0<br/>samples = 1<br/>value = [0, 2]<br/>class = Purchase>, fillcolor="#399de5"] ;
146 -> 148 ;
149 [label=<gini = 0.0<br/>samples = 5<br/>value = [0, 9]<br/>class = Purchase>, fillcolor="#399de5"] ;
145 -> 149 ;
150 [label=<gini = 0.0<br/>samples = 1<br/>value = [2, 0]<br/>class = No Purchase>, fillcolor="#e58139"] ;
144 -> 150 ;
151 [label=<ProductRelated_Duration &le; 314.792<br/>gini = 0.435<br/>samples = 169<br/>value = [185, 87]<br/>class = No Purchase>, fillcolor="#f1bc96"] ;
143 -> 151 ;
152 [label=<BounceRates &le; 0.003<br/>gini = 0.064<br/>samples = 18<br/>value = [29, 1]<br/>class = No Purchase>, fillcolor="#e68540"] ;
151 -> 152 ;
153 [label=<ProductRelated &le; 8.5<br/>gini = 0.071<br/>samples = 16<br/>value = [26, 1]<br/>class = No Purchase>, fillcolor="#e68641"] ;
152 -> 153 ;
154 [label=<gini = 0.0<br/>samples = 1<br/>value = [0, 1]<br/>class = Purchase>, fillcolor="#399de5"] ;
153 -> 154 ;
155 [label=<gini = 0.0<br/>samples = 15<br/>value = [26, 0]<br/>class = No Purchase>, fillcolor="#e58139"] ;
153 -> 155 ;
156 [label=<gini = 0.0<br/>samples = 2<br/>value = [3, 0]<br/>class = No Purchase>, fillcolor="#e58139"] ;
152 -> 156 ;
157 [label=<ProductRelated &le; 95.5<br/>gini = 0.458<br/>samples = 151<br/>value = [156, 86]<br/>class = No Purchase>, fillcolor="#f3c6a6"] ;
151 -> 157 ;
158 [label=<Browser &le; 12.5<br/>gini = 0.467<br/>samples = 142<br/>value = [144, 85]<br/>class = No Purchase>, fillcolor="#f4cbae"] ;
157 -> 158 ;
159 [label=<Region &le; 1.5<br/>gini = 0.464<br/>samples = 141<br/>value = [144, 83]<br/>class = No Purchase>, fillcolor="#f4caab"] ;
158 -> 159 ;
160 [label=<Informational_Duration &le; 9.0<br/>gini = 0.497<br/>samples = 61<br/>value = [50, 43]<br/>class = No Purchase>, fillcolor="#fbede3"] ;
159 -> 160 ;
161 [label=<PageValues &le; 2.584<br/>gini = 0.471<br/>samples = 54<br/>value = [49.0, 30.0]<br/>class = No Purchase>, fillcolor="#f5ceb2"] ;
160 -> 161 ;
162 [label=<ProductRelated &le; 38.0<br/>gini = 0.194<br/>samples = 40<br/>value = [49, 6]<br/>class = No Purchase>, fillcolor="#e89051"] ;
161 -> 162 ;
163 [label=<Browser &le; 4.5<br/>gini = 0.053<br/>samples = 27<br/>value = [36, 1]<br/>class = No Purchase>, fillcolor="#e6843e"] ;
162 -> 163 ;
164 [label=<gini = 0.0<br/>samples = 24<br/>value = [33, 0]<br/>class = No Purchase>, fillcolor="#e58139"] ;
163 -> 164 ;
165 [label=<Browser &le; 8.5<br/>gini = 0.375<br/>samples = 3<br/>value = [3, 1]<br/>class = No Purchase>, fillcolor="#eeab7b"] ;
163 -> 165 ;
166 [label=<Month &le; 8.0<br/>gini = 0.444<br/>samples = 2<br/>value = [2, 1]<br/>class = No Purchase>, fillcolor="#f2c09c"] ;
165 -> 166 ;
167 [label=<gini = 0.0<br/>samples = 1<br/>value = [2, 0]<br/>class = No Purchase>, fillcolor="#e58139"] ;
166 -> 167 ;
168 [label=<gini = 0.0<br/>samples = 1<br/>value = [0, 1]<br/>class = Purchase>, fillcolor="#399de5"] ;
166 -> 168 ;
169 [label=<gini = 0.0<br/>samples = 1<br/>value = [1, 0]<br/>class = No Purchase>, fillcolor="#e58139"] ;
165 -> 169 ;
170 [label=<ProductRelated &le; 40.5<br/>gini = 0.401<br/>samples = 13<br/>value = [13, 5]<br/>class = No Purchase>, fillcolor="#efb185"] ;
162 -> 170 ;
171 [label=<gini = 0.0<br/>samples = 1<br/>value = [0, 2]<br/>class = Purchase>, fillcolor="#399de5"] ;
170 -> 171 ;
172 [label=<ProductRelated &le; 54.0<br/>gini = 0.305<br/>samples = 12<br/>value = [13, 3]<br/>class = No Purchase>, fillcolor="#eb9e67"] ;
170 -> 172 ;
173 [label=<BounceRates &le; 0.005<br/>gini = 0.48<br/>samples = 4<br/>value = [3, 2]<br/>class = No Purchase>, fillcolor="#f6d5bd"] ;
172 -> 173 ;
174 [label=<Informational_Duration &le; 3.0<br/>gini = 0.444<br/>samples = 2<br/>value = [1, 2]<br/>class = Purchase>, fillcolor="#9ccef2"] ;
173 -> 174 ;
175 [label=<gini = 0.0<br/>samples = 1<br/>value = [0, 2]<br/>class = Purchase>, fillcolor="#399de5"] ;
174 -> 175 ;
176 [label=<gini = 0.0<br/>samples = 1<br/>value = [1, 0]<br/>class = No Purchase>, fillcolor="#e58139"] ;
174 -> 176 ;
177 [label=<gini = 0.0<br/>samples = 2<br/>value = [2, 0]<br/>class = No Purchase>, fillcolor="#e58139"] ;
173 -> 177 ;
178 [label=<ProductRelated &le; 83.0<br/>gini = 0.165<br/>samples = 8<br/>value = [10, 1]<br/>class = No Purchase>, fillcolor="#e88e4d"] ;
172 -> 178 ;
179 [label=<gini = 0.0<br/>samples = 5<br/>value = [8, 0]<br/>class = No Purchase>, fillcolor="#e58139"] ;
178 -> 179 ;
180 [label=<Weekend &le; 0.5<br/>gini = 0.444<br/>samples = 3<br/>value = [2, 1]<br/>class = No Purchase>, fillcolor="#f2c09c"] ;
178 -> 180 ;
181 [label=<ExitRates &le; 0.014<br/>gini = 0.5<br/>samples = 2<br/>value = [1, 1]<br/>class = No Purchase>, fillcolor="#ffffff"] ;
180 -> 181 ;
182 [label=<gini = 0.0<br/>samples = 1<br/>value = [0, 1]<br/>class = Purchase>, fillcolor="#399de5"] ;
181 -> 182 ;
183 [label=<gini = 0.0<br/>samples = 1<br/>value = [1, 0]<br/>class = No Purchase>, fillcolor="#e58139"] ;
181 -> 183 ;
184 [label=<gini = 0.0<br/>samples = 1<br/>value = [1, 0]<br/>class = No Purchase>, fillcolor="#e58139"] ;
180 -> 184 ;
185 [label=<gini = 0.0<br/>samples = 14<br/>value = [0, 24]<br/>class = Purchase>, fillcolor="#399de5"] ;
161 -> 185 ;
186 [label=<ExitRates &le; 0.017<br/>gini = 0.133<br/>samples = 7<br/>value = [1, 13]<br/>class = Purchase>, fillcolor="#48a5e7"] ;
160 -> 186 ;
187 [label=<gini = 0.0<br/>samples = 6<br/>value = [0, 13]<br/>class = Purchase>, fillcolor="#399de5"] ;
186 -> 187 ;
188 [label=<gini = 0.0<br/>samples = 1<br/>value = [1, 0]<br/>class = No Purchase>, fillcolor="#e58139"] ;
186 -> 188 ;
189 [label=<BounceRates &le; 0.006<br/>gini = 0.419<br/>samples = 80<br/>value = [94, 40]<br/>class = No Purchase>, fillcolor="#f0b78d"] ;
159 -> 189 ;
190 [label=<ProductRelated_Duration &le; 323.625<br/>gini = 0.389<br/>samples = 73<br/>value = [89, 32]<br/>class = No Purchase>, fillcolor="#eeae80"] ;
189 -> 190 ;
191 [label=<gini = 0.0<br/>samples = 1<br/>value = [0, 4]<br/>class = Purchase>, fillcolor="#399de5"] ;
190 -> 191 ;
192 [label=<Informational_Duration &le; 309.367<br/>gini = 0.364<br/>samples = 72<br/>value = [89, 28]<br/>class = No Purchase>, fillcolor="#eda977"] ;
190 -> 192 ;
193 [label=<BounceRates &le; 0.001<br/>gini = 0.342<br/>samples = 70<br/>value = [89, 25]<br/>class = No Purchase>, fillcolor="#eca471"] ;
192 -> 193 ;
194 [label=<PageValues &le; 6.891<br/>gini = 0.396<br/>samples = 60<br/>value = [67, 25]<br/>class = No Purchase>, fillcolor="#efb083"] ;
193 -> 194 ;
195 [label=<PageValues &le; 1.855<br/>gini = 0.131<br/>samples = 47<br/>value = [66, 5]<br/>class = No Purchase>, fillcolor="#e78b48"] ;
194 -> 195 ;
196 [label=<ProductRelated &le; 55.0<br/>gini = 0.111<br/>samples = 45<br/>value = [64, 4]<br/>class = No Purchase>, fillcolor="#e78945"] ;
195 -> 196 ;
197 [label=<Informational_Duration &le; 13.5<br/>gini = 0.033<br/>samples = 40<br/>value = [58, 1]<br/>class = No Purchase>, fillcolor="#e5833c"] ;
196 -> 197 ;
198 [label=<Month &le; 7.5<br/>gini = 0.036<br/>samples = 36<br/>value = [53, 1]<br/>class = No Purchase>, fillcolor="#e5833d"] ;
197 -> 198 ;
199 [label=<ExitRates &le; 0.013<br/>gini = 0.064<br/>samples = 21<br/>value = [29, 1]<br/>class = No Purchase>, fillcolor="#e68540"] ;
198 -> 199 ;
200 [label=<gini = 0.0<br/>samples = 13<br/>value = [20, 0]<br/>class = No Purchase>, fillcolor="#e58139"] ;
199 -> 200 ;
201 [label=<ProductRelated &le; 18.0<br/>gini = 0.18<br/>samples = 8<br/>value = [9, 1]<br/>class = No Purchase>, fillcolor="#e88f4f"] ;
199 -> 201 ;
202 [label=<gini = 0.0<br/>samples = 5<br/>value = [7, 0]<br/>class = No Purchase>, fillcolor="#e58139"] ;
201 -> 202 ;
203 [label=<OperatingSystems &le; 2.5<br/>gini = 0.444<br/>samples = 3<br/>value = [2, 1]<br/>class = No Purchase>, fillcolor="#f2c09c"] ;
201 -> 203 ;
204 [label=<gini = 0.0<br/>samples = 2<br/>value = [2, 0]<br/>class = No Purchase>, fillcolor="#e58139"] ;
203 -> 204 ;
205 [label=<gini = 0.0<br/>samples = 1<br/>value = [0, 1]<br/>class = Purchase>, fillcolor="#399de5"] ;
203 -> 205 ;
206 [label=<gini = 0.0<br/>samples = 15<br/>value = [24, 0]<br/>class = No Purchase>, fillcolor="#e58139"] ;
198 -> 206 ;
207 [label=<gini = 0.0<br/>samples = 4<br/>value = [5, 0]<br/>class = No Purchase>, fillcolor="#e58139"] ;
197 -> 207 ;
208 [label=<Region &le; 2.5<br/>gini = 0.444<br/>samples = 5<br/>value = [6, 3]<br/>class = No Purchase>, fillcolor="#f2c09c"] ;
196 -> 208 ;
209 [label=<gini = 0.0<br/>samples = 1<br/>value = [0, 2]<br/>class = Purchase>, fillcolor="#399de5"] ;
208 -> 209 ;
210 [label=<ProductRelated &le; 59.0<br/>gini = 0.245<br/>samples = 4<br/>value = [6, 1]<br/>class = No Purchase>, fillcolor="#e9965a"] ;
208 -> 210 ;
211 [label=<gini = 0.0<br/>samples = 1<br/>value = [0, 1]<br/>class = Purchase>, fillcolor="#399de5"] ;
210 -> 211 ;
212 [label=<gini = 0.0<br/>samples = 3<br/>value = [6, 0]<br/>class = No Purchase>, fillcolor="#e58139"] ;
210 -> 212 ;
213 [label=<Region &le; 2.5<br/>gini = 0.444<br/>samples = 2<br/>value = [2, 1]<br/>class = No Purchase>, fillcolor="#f2c09c"] ;
195 -> 213 ;
214 [label=<gini = 0.0<br/>samples = 1<br/>value = [2, 0]<br/>class = No Purchase>, fillcolor="#e58139"] ;
213 -> 214 ;
215 [label=<gini = 0.0<br/>samples = 1<br/>value = [0, 1]<br/>class = Purchase>, fillcolor="#399de5"] ;
213 -> 215 ;
216 [label=<ProductRelated_Duration &le; 641.692<br/>gini = 0.091<br/>samples = 13<br/>value = [1, 20]<br/>class = Purchase>, fillcolor="#43a2e6"] ;
194 -> 216 ;
217 [label=<VisitorType &le; 0.5<br/>gini = 0.219<br/>samples = 5<br/>value = [1, 7]<br/>class = Purchase>, fillcolor="#55abe9"] ;
216 -> 217 ;
218 [label=<gini = 0.0<br/>samples = 1<br/>value = [1, 0]<br/>class = No Purchase>, fillcolor="#e58139"] ;
217 -> 218 ;
219 [label=<gini = 0.0<br/>samples = 4<br/>value = [0, 7]<br/>class = Purchase>, fillcolor="#399de5"] ;
217 -> 219 ;
220 [label=<gini = 0.0<br/>samples = 8<br/>value = [0, 13]<br/>class = Purchase>, fillcolor="#399de5"] ;
216 -> 220 ;
221 [label=<gini = 0.0<br/>samples = 10<br/>value = [22, 0]<br/>class = No Purchase>, fillcolor="#e58139"] ;
193 -> 221 ;
222 [label=<gini = 0.0<br/>samples = 2<br/>value = [0, 3]<br/>class = Purchase>, fillcolor="#399de5"] ;
192 -> 222 ;
223 [label=<ProductRelated &le; 29.0<br/>gini = 0.473<br/>samples = 7<br/>value = [5, 8]<br/>class = Purchase>, fillcolor="#b5daf5"] ;
189 -> 223 ;
224 [label=<BounceRates &le; 0.009<br/>gini = 0.408<br/>samples = 4<br/>value = [5, 2]<br/>class = No Purchase>, fillcolor="#efb388"] ;
223 -> 224 ;
225 [label=<ProductRelated &le; 24.5<br/>gini = 0.5<br/>samples = 2<br/>value = [2, 2]<br/>class = No Purchase>, fillcolor="#ffffff"] ;
224 -> 225 ;
226 [label=<gini = 0.0<br/>samples = 1<br/>value = [0, 2]<br/>class = Purchase>, fillcolor="#399de5"] ;
225 -> 226 ;
227 [label=<gini = 0.0<br/>samples = 1<br/>value = [2, 0]<br/>class = No Purchase>, fillcolor="#e58139"] ;
225 -> 227 ;
228 [label=<gini = 0.0<br/>samples = 2<br/>value = [3, 0]<br/>class = No Purchase>, fillcolor="#e58139"] ;
224 -> 228 ;
229 [label=<gini = 0.0<br/>samples = 3<br/>value = [0, 6]<br/>class = Purchase>, fillcolor="#399de5"] ;
223 -> 229 ;
230 [label=<gini = 0.0<br/>samples = 1<br/>value = [0, 2]<br/>class = Purchase>, fillcolor="#399de5"] ;
158 -> 230 ;
231 [label=<BounceRates &le; 0.001<br/>gini = 0.142<br/>samples = 9<br/>value = [12, 1]<br/>class = No Purchase>, fillcolor="#e78c49"] ;
157 -> 231 ;
232 [label=<Informational &le; 0.5<br/>gini = 0.5<br/>samples = 2<br/>value = [1, 1]<br/>class = No Purchase>, fillcolor="#ffffff"] ;
231 -> 232 ;
233 [label=<gini = 0.0<br/>samples = 1<br/>value = [1, 0]<br/>class = No Purchase>, fillcolor="#e58139"] ;
232 -> 233 ;
234 [label=<gini = 0.0<br/>samples = 1<br/>value = [0, 1]<br/>class = Purchase>, fillcolor="#399de5"] ;
232 -> 234 ;
235 [label=<gini = 0.0<br/>samples = 7<br/>value = [11, 0]<br/>class = No Purchase>, fillcolor="#e58139"] ;
231 -> 235 ;
236 [label=<TrafficType &le; 2.5<br/>gini = 0.278<br/>samples = 4<br/>value = [1, 5]<br/>class = Purchase>, fillcolor="#61b1ea"] ;
96 -> 236 ;
237 [label=<gini = 0.0<br/>samples = 3<br/>value = [0, 5]<br/>class = Purchase>, fillcolor="#399de5"] ;
236 -> 237 ;
238 [label=<gini = 0.0<br/>samples = 1<br/>value = [1, 0]<br/>class = No Purchase>, fillcolor="#e58139"] ;
236 -> 238 ;
239 [label=<PageValues &le; 7.196<br/>gini = 0.131<br/>samples = 1046<br/>value = [1526.0, 116.0]<br/>class = No Purchase>, fillcolor="#e78b48"] ;
61 -> 239 ;
240 [label=<Month &le; 5.5<br/>gini = 0.059<br/>samples = 980<br/>value = [1494, 47]<br/>class = No Purchase>, fillcolor="#e6853f"] ;
239 -> 240 ;
241 [label=<PageValues &le; 1.094<br/>gini = 0.005<br/>samples = 553<br/>value = [878, 2]<br/>class = No Purchase>, fillcolor="#e58139"] ;
240 -> 241 ;
242 [label=<gini = 0.0<br/>samples = 547<br/>value = [870, 0]<br/>class = No Purchase>, fillcolor="#e58139"] ;
241 -> 242 ;
243 [label=<Informational &le; 1.0<br/>gini = 0.32<br/>samples = 6<br/>value = [8, 2]<br/>class = No Purchase>, fillcolor="#eca06a"] ;
241 -> 243 ;
244 [label=<OperatingSystems &le; 3.0<br/>gini = 0.346<br/>samples = 5<br/>value = [7, 2]<br/>class = No Purchase>, fillcolor="#eca572"] ;
243 -> 244 ;
245 [label=<Browser &le; 3.0<br/>gini = 0.219<br/>samples = 4<br/>value = [7, 1]<br/>class = No Purchase>, fillcolor="#e99355"] ;
244 -> 245 ;
246 [label=<gini = 0.0<br/>samples = 2<br/>value = [5, 0]<br/>class = No Purchase>, fillcolor="#e58139"] ;
245 -> 246 ;
247 [label=<TrafficType &le; 1.5<br/>gini = 0.444<br/>samples = 2<br/>value = [2, 1]<br/>class = No Purchase>, fillcolor="#f2c09c"] ;
245 -> 247 ;
248 [label=<gini = 0.0<br/>samples = 1<br/>value = [2, 0]<br/>class = No Purchase>, fillcolor="#e58139"] ;
247 -> 248 ;
249 [label=<gini = 0.0<br/>samples = 1<br/>value = [0, 1]<br/>class = Purchase>, fillcolor="#399de5"] ;
247 -> 249 ;
250 [label=<gini = 0.0<br/>samples = 1<br/>value = [0, 1]<br/>class = Purchase>, fillcolor="#399de5"] ;
244 -> 250 ;
251 [label=<gini = 0.0<br/>samples = 1<br/>value = [1, 0]<br/>class = No Purchase>, fillcolor="#e58139"] ;
243 -> 251 ;
252 [label=<Informational_Duration &le; 23.5<br/>gini = 0.127<br/>samples = 427<br/>value = [616, 45]<br/>class = No Purchase>, fillcolor="#e78a47"] ;
240 -> 252 ;
253 [label=<ProductRelated_Duration &le; 2474.567<br/>gini = 0.112<br/>samples = 387<br/>value = [570, 36]<br/>class = No Purchase>, fillcolor="#e78946"] ;
252 -> 253 ;
254 [label=<BounceRates &le; 0.01<br/>gini = 0.094<br/>samples = 348<br/>value = [517, 27]<br/>class = No Purchase>, fillcolor="#e68843"] ;
253 -> 254 ;
255 [label=<Browser &le; 1.5<br/>gini = 0.135<br/>samples = 170<br/>value = [243, 19]<br/>class = No Purchase>, fillcolor="#e78b48"] ;
254 -> 255 ;
256 [label=<gini = 0.0<br/>samples = 26<br/>value = [41, 0]<br/>class = No Purchase>, fillcolor="#e58139"] ;
255 -> 256 ;
257 [label=<OperatingSystems &le; 1.5<br/>gini = 0.157<br/>samples = 144<br/>value = [202, 19]<br/>class = No Purchase>, fillcolor="#e78d4c"] ;
255 -> 257 ;
258 [label=<Browser &le; 4.0<br/>gini = 0.408<br/>samples = 9<br/>value = [10, 4]<br/>class = No Purchase>, fillcolor="#efb388"] ;
257 -> 258 ;
259 [label=<BounceRates &le; 0.007<br/>gini = 0.49<br/>samples = 3<br/>value = [4, 3]<br/>class = No Purchase>, fillcolor="#f8e0ce"] ;
258 -> 259 ;
260 [label=<gini = 0.0<br/>samples = 2<br/>value = [4, 0]<br/>class = No Purchase>, fillcolor="#e58139"] ;
259 -> 260 ;
261 [label=<gini = 0.0<br/>samples = 1<br/>value = [0, 3]<br/>class = Purchase>, fillcolor="#399de5"] ;
259 -> 261 ;
262 [label=<ExitRates &le; 0.034<br/>gini = 0.245<br/>samples = 6<br/>value = [6, 1]<br/>class = No Purchase>, fillcolor="#e9965a"] ;
258 -> 262 ;
263 [label=<gini = 0.0<br/>samples = 3<br/>value = [4, 0]<br/>class = No Purchase>, fillcolor="#e58139"] ;
262 -> 263 ;
264 [label=<BounceRates &le; 0.005<br/>gini = 0.444<br/>samples = 3<br/>value = [2, 1]<br/>class = No Purchase>, fillcolor="#f2c09c"] ;
262 -> 264 ;
265 [label=<gini = 0.0<br/>samples = 1<br/>value = [0, 1]<br/>class = Purchase>, fillcolor="#399de5"] ;
264 -> 265 ;
266 [label=<gini = 0.0<br/>samples = 2<br/>value = [2, 0]<br/>class = No Purchase>, fillcolor="#e58139"] ;
264 -> 266 ;
267 [label=<ProductRelated_Duration &le; 1250.721<br/>gini = 0.134<br/>samples = 135<br/>value = [192, 15]<br/>class = No Purchase>, fillcolor="#e78b48"] ;
257 -> 267 ;
268 [label=<ProductRelated &le; 24.5<br/>gini = 0.111<br/>samples = 109<br/>value = [159, 10]<br/>class = No Purchase>, fillcolor="#e78945"] ;
267 -> 268 ;
269 [label=<TrafficType &le; 9.0<br/>gini = 0.153<br/>samples = 85<br/>value = [110, 10]<br/>class = No Purchase>, fillcolor="#e78c4b"] ;
268 -> 269 ;
270 [label=<VisitorType &le; 0.5<br/>gini = 0.212<br/>samples = 59<br/>value = [73, 10]<br/>class = No Purchase>, fillcolor="#e99254"] ;
269 -> 270 ;
271 [label=<Informational &le; 0.5<br/>gini = 0.251<br/>samples = 47<br/>value = [58, 10]<br/>class = No Purchase>, fillcolor="#e9975b"] ;
270 -> 271 ;
272 [label=<ProductRelated &le; 12.5<br/>gini = 0.254<br/>samples = 46<br/>value = [57, 10]<br/>class = No Purchase>, fillcolor="#ea975c"] ;
271 -> 272 ;
273 [label=<Browser &le; 3.0<br/>gini = 0.149<br/>samples = 25<br/>value = [34, 3]<br/>class = No Purchase>, fillcolor="#e78c4a"] ;
272 -> 273 ;
274 [label=<Month &le; 8.0<br/>gini = 0.191<br/>samples = 18<br/>value = [25, 3]<br/>class = No Purchase>, fillcolor="#e89051"] ;
273 -> 274 ;
275 [label=<ProductRelated_Duration &le; 127.0<br/>gini = 0.124<br/>samples = 9<br/>value = [14, 1]<br/>class = No Purchase>, fillcolor="#e78a47"] ;
274 -> 275 ;
276 [label=<Region &le; 6.0<br/>gini = 0.444<br/>samples = 2<br/>value = [2, 1]<br/>class = No Purchase>, fillcolor="#f2c09c"] ;
275 -> 276 ;
277 [label=<gini = 0.0<br/>samples = 1<br/>value = [0, 1]<br/>class = Purchase>, fillcolor="#399de5"] ;
276 -> 277 ;
278 [label=<gini = 0.0<br/>samples = 1<br/>value = [2, 0]<br/>class = No Purchase>, fillcolor="#e58139"] ;
276 -> 278 ;
279 [label=<gini = 0.0<br/>samples = 7<br/>value = [12, 0]<br/>class = No Purchase>, fillcolor="#e58139"] ;
275 -> 279 ;
280 [label=<OperatingSystems &le; 2.5<br/>gini = 0.26<br/>samples = 9<br/>value = [11, 2]<br/>class = No Purchase>, fillcolor="#ea985d"] ;
274 -> 280 ;
281 [label=<gini = 0.0<br/>samples = 7<br/>value = [10, 0]<br/>class = No Purchase>, fillcolor="#e58139"] ;
280 -> 281 ;
282 [label=<Weekend &le; 0.5<br/>gini = 0.444<br/>samples = 2<br/>value = [1, 2]<br/>class = Purchase>, fillcolor="#9ccef2"] ;
280 -> 282 ;
283 [label=<gini = 0.0<br/>samples = 1<br/>value = [0, 2]<br/>class = Purchase>, fillcolor="#399de5"] ;
282 -> 283 ;
284 [label=<gini = 0.0<br/>samples = 1<br/>value = [1, 0]<br/>class = No Purchase>, fillcolor="#e58139"] ;
282 -> 284 ;
285 [label=<gini = 0.0<br/>samples = 7<br/>value = [9, 0]<br/>class = No Purchase>, fillcolor="#e58139"] ;
273 -> 285 ;
286 [label=<Month &le; 8.0<br/>gini = 0.358<br/>samples = 21<br/>value = [23, 7]<br/>class = No Purchase>, fillcolor="#eda775"] ;
272 -> 286 ;
287 [label=<BounceRates &le; 0.008<br/>gini = 0.42<br/>samples = 13<br/>value = [14, 6]<br/>class = No Purchase>, fillcolor="#f0b78e"] ;
286 -> 287 ;
288 [label=<BounceRates &le; 0.004<br/>gini = 0.497<br/>samples = 9<br/>value = [7, 6]<br/>class = No Purchase>, fillcolor="#fbede3"] ;
287 -> 288 ;
289 [label=<Browser &le; 3.0<br/>gini = 0.346<br/>samples = 6<br/>value = [7, 2]<br/>class = No Purchase>, fillcolor="#eca572"] ;
288 -> 289 ;
290 [label=<Region &le; 2.5<br/>gini = 0.48<br/>samples = 5<br/>value = [3, 2]<br/>class = No Purchase>, fillcolor="#f6d5bd"] ;
289 -> 290 ;
291 [label=<gini = 0.0<br/>samples = 2<br/>value = [2, 0]<br/>class = No Purchase>, fillcolor="#e58139"] ;
290 -> 291 ;
292 [label=<BounceRates &le; 0.002<br/>gini = 0.444<br/>samples = 3<br/>value = [1, 2]<br/>class = Purchase>, fillcolor="#9ccef2"] ;
290 -> 292 ;
293 [label=<gini = 0.0<br/>samples = 2<br/>value = [0, 2]<br/>class = Purchase>, fillcolor="#399de5"] ;
292 -> 293 ;
294 [label=<gini = 0.0<br/>samples = 1<br/>value = [1, 0]<br/>class = No Purchase>, fillcolor="#e58139"] ;
292 -> 294 ;
295 [label=<gini = 0.0<br/>samples = 1<br/>value = [4, 0]<br/>class = No Purchase>, fillcolor="#e58139"] ;
289 -> 295 ;
296 [label=<gini = 0.0<br/>samples = 3<br/>value = [0, 4]<br/>class = Purchase>, fillcolor="#399de5"] ;
288 -> 296 ;
297 [label=<gini = 0.0<br/>samples = 4<br/>value = [7, 0]<br/>class = No Purchase>, fillcolor="#e58139"] ;
287 -> 297 ;
298 [label=<ProductRelated &le; 16.5<br/>gini = 0.18<br/>samples = 8<br/>value = [9, 1]<br/>class = No Purchase>, fillcolor="#e88f4f"] ;
286 -> 298 ;
299 [label=<ProductRelated &le; 15.0<br/>gini = 0.32<br/>samples = 4<br/>value = [4, 1]<br/>class = No Purchase>, fillcolor="#eca06a"] ;
298 -> 299 ;
300 [label=<gini = 0.0<br/>samples = 3<br/>value = [4, 0]<br/>class = No Purchase>, fillcolor="#e58139"] ;
299 -> 300 ;
301 [label=<gini = 0.0<br/>samples = 1<br/>value = [0, 1]<br/>class = Purchase>, fillcolor="#399de5"] ;
299 -> 301 ;
302 [label=<gini = 0.0<br/>samples = 4<br/>value = [5, 0]<br/>class = No Purchase>, fillcolor="#e58139"] ;
298 -> 302 ;
303 [label=<gini = 0.0<br/>samples = 1<br/>value = [1, 0]<br/>class = No Purchase>, fillcolor="#e58139"] ;
271 -> 303 ;
304 [label=<gini = 0.0<br/>samples = 12<br/>value = [15, 0]<br/>class = No Purchase>, fillcolor="#e58139"] ;
270 -> 304 ;
305 [label=<gini = 0.0<br/>samples = 26<br/>value = [37, 0]<br/>class = No Purchase>, fillcolor="#e58139"] ;
269 -> 305 ;
306 [label=<gini = 0.0<br/>samples = 24<br/>value = [49, 0]<br/>class = No Purchase>, fillcolor="#e58139"] ;
268 -> 306 ;
307 [label=<Weekend &le; 0.5<br/>gini = 0.229<br/>samples = 26<br/>value = [33, 5]<br/>class = No Purchase>, fillcolor="#e99457"] ;
267 -> 307 ;
308 [label=<ProductRelated_Duration &le; 1568.847<br/>gini = 0.121<br/>samples = 20<br/>value = [29, 2]<br/>class = No Purchase>, fillcolor="#e78a47"] ;
307 -> 308 ;
309 [label=<ProductRelated_Duration &le; 1546.681<br/>gini = 0.346<br/>samples = 7<br/>value = [7, 2]<br/>class = No Purchase>, fillcolor="#eca572"] ;
308 -> 309 ;
310 [label=<VisitorType &le; 0.5<br/>gini = 0.219<br/>samples = 6<br/>value = [7, 1]<br/>class = No Purchase>, fillcolor="#e99355"] ;
309 -> 310 ;
311 [label=<gini = 0.0<br/>samples = 5<br/>value = [7, 0]<br/>class = No Purchase>, fillcolor="#e58139"] ;
310 -> 311 ;
312 [label=<gini = 0.0<br/>samples = 1<br/>value = [0, 1]<br/>class = Purchase>, fillcolor="#399de5"] ;
310 -> 312 ;
313 [label=<gini = 0.0<br/>samples = 1<br/>value = [0, 1]<br/>class = Purchase>, fillcolor="#399de5"] ;
309 -> 313 ;
314 [label=<gini = 0.0<br/>samples = 13<br/>value = [22, 0]<br/>class = No Purchase>, fillcolor="#e58139"] ;
308 -> 314 ;
315 [label=<BounceRates &le; 0.003<br/>gini = 0.49<br/>samples = 6<br/>value = [4, 3]<br/>class = No Purchase>, fillcolor="#f8e0ce"] ;
307 -> 315 ;
316 [label=<gini = 0.0<br/>samples = 2<br/>value = [0, 3]<br/>class = Purchase>, fillcolor="#399de5"] ;
315 -> 316 ;
317 [label=<gini = 0.0<br/>samples = 4<br/>value = [4, 0]<br/>class = No Purchase>, fillcolor="#e58139"] ;
315 -> 317 ;
318 [label=<ProductRelated_Duration &le; 276.375<br/>gini = 0.055<br/>samples = 178<br/>value = [274, 8]<br/>class = No Purchase>, fillcolor="#e6853f"] ;
254 -> 318 ;
319 [label=<ProductRelated_Duration &le; 273.479<br/>gini = 0.168<br/>samples = 46<br/>value = [59, 6]<br/>class = No Purchase>, fillcolor="#e88e4d"] ;
318 -> 319 ;
320 [label=<ExitRates &le; 0.024<br/>gini = 0.092<br/>samples = 44<br/>value = [59, 3]<br/>class = No Purchase>, fillcolor="#e68743"] ;
319 -> 320 ;
321 [label=<TrafficType &le; 7.5<br/>gini = 0.444<br/>samples = 2<br/>value = [1, 2]<br/>class = Purchase>, fillcolor="#9ccef2"] ;
320 -> 321 ;
322 [label=<gini = 0.0<br/>samples = 1<br/>value = [0, 2]<br/>class = Purchase>, fillcolor="#399de5"] ;
321 -> 322 ;
323 [label=<gini = 0.0<br/>samples = 1<br/>value = [1, 0]<br/>class = No Purchase>, fillcolor="#e58139"] ;
321 -> 323 ;
324 [label=<Browser &le; 3.5<br/>gini = 0.033<br/>samples = 42<br/>value = [58, 1]<br/>class = No Purchase>, fillcolor="#e5833c"] ;
320 -> 324 ;
325 [label=<gini = 0.0<br/>samples = 36<br/>value = [50, 0]<br/>class = No Purchase>, fillcolor="#e58139"] ;
324 -> 325 ;
326 [label=<Browser &le; 4.5<br/>gini = 0.198<br/>samples = 6<br/>value = [8, 1]<br/>class = No Purchase>, fillcolor="#e89152"] ;
324 -> 326 ;
327 [label=<ProductRelated_Duration &le; 112.292<br/>gini = 0.32<br/>samples = 4<br/>value = [4, 1]<br/>class = No Purchase>, fillcolor="#eca06a"] ;
326 -> 327 ;
328 [label=<gini = 0.0<br/>samples = 3<br/>value = [4, 0]<br/>class = No Purchase>, fillcolor="#e58139"] ;
327 -> 328 ;
329 [label=<gini = 0.0<br/>samples = 1<br/>value = [0, 1]<br/>class = Purchase>, fillcolor="#399de5"] ;
327 -> 329 ;
330 [label=<gini = 0.0<br/>samples = 2<br/>value = [4, 0]<br/>class = No Purchase>, fillcolor="#e58139"] ;
326 -> 330 ;
331 [label=<gini = 0.0<br/>samples = 2<br/>value = [0, 3]<br/>class = Purchase>, fillcolor="#399de5"] ;
319 -> 331 ;
332 [label=<BounceRates &le; 0.028<br/>gini = 0.018<br/>samples = 132<br/>value = [215, 2]<br/>class = No Purchase>, fillcolor="#e5823b"] ;
318 -> 332 ;
333 [label=<gini = 0.0<br/>samples = 89<br/>value = [142, 0]<br/>class = No Purchase>, fillcolor="#e58139"] ;
332 -> 333 ;
334 [label=<ExitRates &le; 0.037<br/>gini = 0.052<br/>samples = 43<br/>value = [73, 2]<br/>class = No Purchase>, fillcolor="#e6843e"] ;
332 -> 334 ;
335 [label=<Month &le; 8.0<br/>gini = 0.5<br/>samples = 2<br/>value = [1, 1]<br/>class = No Purchase>, fillcolor="#ffffff"] ;
334 -> 335 ;
336 [label=<gini = 0.0<br/>samples = 1<br/>value = [0, 1]<br/>class = Purchase>, fillcolor="#399de5"] ;
335 -> 336 ;
337 [label=<gini = 0.0<br/>samples = 1<br/>value = [1, 0]<br/>class = No Purchase>, fillcolor="#e58139"] ;
335 -> 337 ;
338 [label=<Browser &le; 1.5<br/>gini = 0.027<br/>samples = 41<br/>value = [72, 1]<br/>class = No Purchase>, fillcolor="#e5833c"] ;
334 -> 338 ;
339 [label=<ExitRates &le; 0.046<br/>gini = 0.165<br/>samples = 8<br/>value = [10, 1]<br/>class = No Purchase>, fillcolor="#e88e4d"] ;
338 -> 339 ;
340 [label=<gini = 0.0<br/>samples = 1<br/>value = [0, 1]<br/>class = Purchase>, fillcolor="#399de5"] ;
339 -> 340 ;
341 [label=<gini = 0.0<br/>samples = 7<br/>value = [10, 0]<br/>class = No Purchase>, fillcolor="#e58139"] ;
339 -> 341 ;
342 [label=<gini = 0.0<br/>samples = 33<br/>value = [62, 0]<br/>class = No Purchase>, fillcolor="#e58139"] ;
338 -> 342 ;
343 [label=<BounceRates &le; 0.017<br/>gini = 0.248<br/>samples = 39<br/>value = [53, 9]<br/>class = No Purchase>, fillcolor="#e9965b"] ;
253 -> 343 ;
344 [label=<Weekend &le; 0.5<br/>gini = 0.122<br/>samples = 29<br/>value = [43, 3]<br/>class = No Purchase>, fillcolor="#e78a47"] ;
343 -> 344 ;
345 [label=<Month &le; 7.5<br/>gini = 0.153<br/>samples = 22<br/>value = [33, 3]<br/>class = No Purchase>, fillcolor="#e78c4b"] ;
344 -> 345 ;
346 [label=<ProductRelated &le; 107.5<br/>gini = 0.255<br/>samples = 14<br/>value = [17, 3]<br/>class = No Purchase>, fillcolor="#ea975c"] ;
345 -> 346 ;
347 [label=<gini = 0.0<br/>samples = 12<br/>value = [17, 0]<br/>class = No Purchase>, fillcolor="#e58139"] ;
346 -> 347 ;
348 [label=<gini = 0.0<br/>samples = 2<br/>value = [0, 3]<br/>class = Purchase>, fillcolor="#399de5"] ;
346 -> 348 ;
349 [label=<gini = 0.0<br/>samples = 8<br/>value = [16, 0]<br/>class = No Purchase>, fillcolor="#e58139"] ;
345 -> 349 ;
350 [label=<gini = 0.0<br/>samples = 7<br/>value = [10, 0]<br/>class = No Purchase>, fillcolor="#e58139"] ;
344 -> 350 ;
351 [label=<BounceRates &le; 0.028<br/>gini = 0.469<br/>samples = 10<br/>value = [10, 6]<br/>class = No Purchase>, fillcolor="#f5cdb0"] ;
343 -> 351 ;
352 [label=<Region &le; 1.5<br/>gini = 0.375<br/>samples = 5<br/>value = [2, 6]<br/>class = Purchase>, fillcolor="#7bbeee"] ;
351 -> 352 ;
353 [label=<gini = 0.0<br/>samples = 2<br/>value = [2, 0]<br/>class = No Purchase>, fillcolor="#e58139"] ;
352 -> 353 ;
354 [label=<gini = 0.0<br/>samples = 3<br/>value = [0, 6]<br/>class = Purchase>, fillcolor="#399de5"] ;
352 -> 354 ;
355 [label=<gini = 0.0<br/>samples = 5<br/>value = [8, 0]<br/>class = No Purchase>, fillcolor="#e58139"] ;
351 -> 355 ;
356 [label=<BounceRates &le; 0.018<br/>gini = 0.274<br/>samples = 40<br/>value = [46, 9]<br/>class = No Purchase>, fillcolor="#ea9a60"] ;
252 -> 356 ;
357 [label=<BounceRates &le; 0.007<br/>gini = 0.133<br/>samples = 31<br/>value = [39, 3]<br/>class = No Purchase>, fillcolor="#e78b48"] ;
356 -> 357 ;
358 [label=<gini = 0.0<br/>samples = 16<br/>value = [23, 0]<br/>class = No Purchase>, fillcolor="#e58139"] ;
357 -> 358 ;
359 [label=<Region &le; 6.5<br/>gini = 0.266<br/>samples = 15<br/>value = [16, 3]<br/>class = No Purchase>, fillcolor="#ea995e"] ;
357 -> 359 ;
360 [label=<TrafficType &le; 7.0<br/>gini = 0.198<br/>samples = 14<br/>value = [16, 2]<br/>class = No Purchase>, fillcolor="#e89152"] ;
359 -> 360 ;
361 [label=<ProductRelated &le; 99.0<br/>gini = 0.117<br/>samples = 12<br/>value = [15, 1]<br/>class = No Purchase>, fillcolor="#e78946"] ;
360 -> 361 ;
362 [label=<gini = 0.0<br/>samples = 9<br/>value = [13, 0]<br/>class = No Purchase>, fillcolor="#e58139"] ;
361 -> 362 ;
363 [label=<BounceRates &le; 0.01<br/>gini = 0.444<br/>samples = 3<br/>value = [2, 1]<br/>class = No Purchase>, fillcolor="#f2c09c"] ;
361 -> 363 ;
364 [label=<gini = 0.0<br/>samples = 2<br/>value = [2, 0]<br/>class = No Purchase>, fillcolor="#e58139"] ;
363 -> 364 ;
365 [label=<gini = 0.0<br/>samples = 1<br/>value = [0, 1]<br/>class = Purchase>, fillcolor="#399de5"] ;
363 -> 365 ;
366 [label=<ExitRates &le; 0.021<br/>gini = 0.5<br/>samples = 2<br/>value = [1, 1]<br/>class = No Purchase>, fillcolor="#ffffff"] ;
360 -> 366 ;
367 [label=<gini = 0.0<br/>samples = 1<br/>value = [1, 0]<br/>class = No Purchase>, fillcolor="#e58139"] ;
366 -> 367 ;
368 [label=<gini = 0.0<br/>samples = 1<br/>value = [0, 1]<br/>class = Purchase>, fillcolor="#399de5"] ;
366 -> 368 ;
369 [label=<gini = 0.0<br/>samples = 1<br/>value = [0, 1]<br/>class = Purchase>, fillcolor="#399de5"] ;
359 -> 369 ;
370 [label=<Month &le; 8.0<br/>gini = 0.497<br/>samples = 9<br/>value = [7, 6]<br/>class = No Purchase>, fillcolor="#fbede3"] ;
356 -> 370 ;
371 [label=<ExitRates &le; 0.059<br/>gini = 0.444<br/>samples = 6<br/>value = [3, 6]<br/>class = Purchase>, fillcolor="#9ccef2"] ;
370 -> 371 ;
372 [label=<ExitRates &le; 0.036<br/>gini = 0.245<br/>samples = 4<br/>value = [1, 6]<br/>class = Purchase>, fillcolor="#5aade9"] ;
371 -> 372 ;
373 [label=<gini = 0.0<br/>samples = 1<br/>value = [1, 0]<br/>class = No Purchase>, fillcolor="#e58139"] ;
372 -> 373 ;
374 [label=<gini = 0.0<br/>samples = 3<br/>value = [0, 6]<br/>class = Purchase>, fillcolor="#399de5"] ;
372 -> 374 ;
375 [label=<gini = 0.0<br/>samples = 2<br/>value = [2, 0]<br/>class = No Purchase>, fillcolor="#e58139"] ;
371 -> 375 ;
376 [label=<gini = 0.0<br/>samples = 3<br/>value = [4, 0]<br/>class = No Purchase>, fillcolor="#e58139"] ;
370 -> 376 ;
377 [label=<ProductRelated &le; 11.5<br/>gini = 0.433<br/>samples = 66<br/>value = [32, 69]<br/>class = Purchase>, fillcolor="#95caf1"] ;
239 -> 377 ;
378 [label=<ProductRelated &le; 9.5<br/>gini = 0.046<br/>samples = 25<br/>value = [1, 41]<br/>class = Purchase>, fillcolor="#3e9fe6"] ;
377 -> 378 ;
379 [label=<gini = 0.0<br/>samples = 16<br/>value = [0, 26]<br/>class = Purchase>, fillcolor="#399de5"] ;
378 -> 379 ;
380 [label=<PageValues &le; 17.075<br/>gini = 0.117<br/>samples = 9<br/>value = [1, 15]<br/>class = Purchase>, fillcolor="#46a4e7"] ;
378 -> 380 ;
381 [label=<gini = 0.0<br/>samples = 1<br/>value = [1, 0]<br/>class = No Purchase>, fillcolor="#e58139"] ;
380 -> 381 ;
382 [label=<gini = 0.0<br/>samples = 8<br/>value = [0, 15]<br/>class = Purchase>, fillcolor="#399de5"] ;
380 -> 382 ;
383 [label=<BounceRates &le; 0.025<br/>gini = 0.499<br/>samples = 41<br/>value = [31.0, 28.0]<br/>class = No Purchase>, fillcolor="#fcf3ec"] ;
377 -> 383 ;
384 [label=<ProductRelated &le; 34.5<br/>gini = 0.497<br/>samples = 36<br/>value = [24, 28]<br/>class = Purchase>, fillcolor="#e3f1fb"] ;
383 -> 384 ;
385 [label=<ProductRelated_Duration &le; 1138.86<br/>gini = 0.493<br/>samples = 28<br/>value = [23.0, 18.0]<br/>class = No Purchase>, fillcolor="#f9e4d4"] ;
384 -> 385 ;
386 [label=<TrafficType &le; 3.5<br/>gini = 0.466<br/>samples = 21<br/>value = [10, 17]<br/>class = Purchase>, fillcolor="#add7f4"] ;
385 -> 386 ;
387 [label=<BounceRates &le; 0.022<br/>gini = 0.495<br/>samples = 14<br/>value = [9, 11]<br/>class = Purchase>, fillcolor="#dbedfa"] ;
386 -> 387 ;
388 [label=<ProductRelated &le; 16.5<br/>gini = 0.498<br/>samples = 11<br/>value = [9, 8]<br/>class = No Purchase>, fillcolor="#fcf1e9"] ;
387 -> 388 ;
389 [label=<OperatingSystems &le; 2.5<br/>gini = 0.486<br/>samples = 7<br/>value = [5, 7]<br/>class = Purchase>, fillcolor="#c6e3f8"] ;
388 -> 389 ;
390 [label=<VisitorType &le; 0.5<br/>gini = 0.494<br/>samples = 5<br/>value = [5, 4]<br/>class = No Purchase>, fillcolor="#fae6d7"] ;
389 -> 390 ;
391 [label=<BounceRates &le; 0.004<br/>gini = 0.408<br/>samples = 4<br/>value = [5, 2]<br/>class = No Purchase>, fillcolor="#efb388"] ;
390 -> 391 ;
392 [label=<TrafficType &le; 1.5<br/>gini = 0.5<br/>samples = 2<br/>value = [2, 2]<br/>class = No Purchase>, fillcolor="#ffffff"] ;
391 -> 392 ;
393 [label=<gini = 0.0<br/>samples = 1<br/>value = [2, 0]<br/>class = No Purchase>, fillcolor="#e58139"] ;
392 -> 393 ;
394 [label=<gini = 0.0<br/>samples = 1<br/>value = [0, 2]<br/>class = Purchase>, fillcolor="#399de5"] ;
392 -> 394 ;
395 [label=<gini = 0.0<br/>samples = 2<br/>value = [3, 0]<br/>class = No Purchase>, fillcolor="#e58139"] ;
391 -> 395 ;
396 [label=<gini = 0.0<br/>samples = 1<br/>value = [0, 2]<br/>class = Purchase>, fillcolor="#399de5"] ;
390 -> 396 ;
397 [label=<gini = 0.0<br/>samples = 2<br/>value = [0, 3]<br/>class = Purchase>, fillcolor="#399de5"] ;
389 -> 397 ;
398 [label=<PageValues &le; 12.725<br/>gini = 0.32<br/>samples = 4<br/>value = [4, 1]<br/>class = No Purchase>, fillcolor="#eca06a"] ;
388 -> 398 ;
399 [label=<gini = 0.0<br/>samples = 1<br/>value = [0, 1]<br/>class = Purchase>, fillcolor="#399de5"] ;
398 -> 399 ;
400 [label=<gini = 0.0<br/>samples = 3<br/>value = [4, 0]<br/>class = No Purchase>, fillcolor="#e58139"] ;
398 -> 400 ;
401 [label=<gini = 0.0<br/>samples = 3<br/>value = [0, 3]<br/>class = Purchase>, fillcolor="#399de5"] ;
387 -> 401 ;
402 [label=<ExitRates &le; 0.029<br/>gini = 0.245<br/>samples = 7<br/>value = [1, 6]<br/>class = Purchase>, fillcolor="#5aade9"] ;
386 -> 402 ;
403 [label=<gini = 0.0<br/>samples = 5<br/>value = [0, 5]<br/>class = Purchase>, fillcolor="#399de5"] ;
402 -> 403 ;
404 [label=<BounceRates &le; 0.022<br/>gini = 0.5<br/>samples = 2<br/>value = [1, 1]<br/>class = No Purchase>, fillcolor="#ffffff"] ;
402 -> 404 ;
405 [label=<gini = 0.0<br/>samples = 1<br/>value = [0, 1]<br/>class = Purchase>, fillcolor="#399de5"] ;
404 -> 405 ;
406 [label=<gini = 0.0<br/>samples = 1<br/>value = [1, 0]<br/>class = No Purchase>, fillcolor="#e58139"] ;
404 -> 406 ;
407 [label=<Region &le; 2.0<br/>gini = 0.133<br/>samples = 7<br/>value = [13, 1]<br/>class = No Purchase>, fillcolor="#e78b48"] ;
385 -> 407 ;
408 [label=<gini = 0.0<br/>samples = 1<br/>value = [0, 1]<br/>class = Purchase>, fillcolor="#399de5"] ;
407 -> 408 ;
409 [label=<gini = 0.0<br/>samples = 6<br/>value = [13, 0]<br/>class = No Purchase>, fillcolor="#e58139"] ;
407 -> 409 ;
410 [label=<Informational &le; 0.5<br/>gini = 0.165<br/>samples = 8<br/>value = [1, 10]<br/>class = Purchase>, fillcolor="#4da7e8"] ;
384 -> 410 ;
411 [label=<gini = 0.0<br/>samples = 7<br/>value = [0, 10]<br/>class = Purchase>, fillcolor="#399de5"] ;
410 -> 411 ;
412 [label=<gini = 0.0<br/>samples = 1<br/>value = [1, 0]<br/>class = No Purchase>, fillcolor="#e58139"] ;
410 -> 412 ;
413 [label=<gini = 0.0<br/>samples = 5<br/>value = [7, 0]<br/>class = No Purchase>, fillcolor="#e58139"] ;
383 -> 413 ;
414 [label=<PageValues &le; 0.929<br/>gini = 0.337<br/>samples = 2940<br/>value = [3653, 998]<br/>class = No Purchase>, fillcolor="#eca36f"] ;
0 -> 414 [labeldistance=2.5, labelangle=-45, headlabel="False"] ;
415 [label=<ProductRelated_Duration &le; 33.667<br/>gini = 0.1<br/>samples = 1942<br/>value = [2920, 162]<br/>class = No Purchase>, fillcolor="#e68844"] ;
414 -> 415 ;
416 [label=<BounceRates &le; 0.06<br/>gini = 0.415<br/>samples = 82<br/>value = [89, 37]<br/>class = No Purchase>, fillcolor="#f0b58b"] ;
415 -> 416 ;
417 [label=<Administrative_Duration &le; 108.717<br/>gini = 0.454<br/>samples = 71<br/>value = [69, 37]<br/>class = No Purchase>, fillcolor="#f3c5a3"] ;
416 -> 417 ;
418 [label=<Month &le; 6.5<br/>gini = 0.481<br/>samples = 60<br/>value = [55, 37]<br/>class = No Purchase>, fillcolor="#f6d6be"] ;
417 -> 418 ;
419 [label=<ProductRelated_Duration &le; 2.0<br/>gini = 0.258<br/>samples = 33<br/>value = [39, 7]<br/>class = No Purchase>, fillcolor="#ea985d"] ;
418 -> 419 ;
420 [label=<ExitRates &le; 0.05<br/>gini = 0.48<br/>samples = 3<br/>value = [2, 3]<br/>class = Purchase>, fillcolor="#bddef6"] ;
419 -> 420 ;
421 [label=<gini = 0.0<br/>samples = 1<br/>value = [0, 3]<br/>class = Purchase>, fillcolor="#399de5"] ;
420 -> 421 ;
422 [label=<gini = 0.0<br/>samples = 2<br/>value = [2, 0]<br/>class = No Purchase>, fillcolor="#e58139"] ;
420 -> 422 ;
423 [label=<OperatingSystems &le; 2.5<br/>gini = 0.176<br/>samples = 30<br/>value = [37, 4]<br/>class = No Purchase>, fillcolor="#e88f4e"] ;
419 -> 423 ;
424 [label=<gini = 0.0<br/>samples = 22<br/>value = [30, 0]<br/>class = No Purchase>, fillcolor="#e58139"] ;
423 -> 424 ;
425 [label=<Weekend &le; 0.5<br/>gini = 0.463<br/>samples = 8<br/>value = [7, 4]<br/>class = No Purchase>, fillcolor="#f4c9aa"] ;
423 -> 425 ;
426 [label=<gini = 0.0<br/>samples = 6<br/>value = [7, 0]<br/>class = No Purchase>, fillcolor="#e58139"] ;
425 -> 426 ;
427 [label=<gini = 0.0<br/>samples = 2<br/>value = [0, 4]<br/>class = Purchase>, fillcolor="#399de5"] ;
425 -> 427 ;
428 [label=<TrafficType &le; 2.5<br/>gini = 0.454<br/>samples = 27<br/>value = [16, 30]<br/>class = Purchase>, fillcolor="#a3d1f3"] ;
418 -> 428 ;
429 [label=<Month &le; 7.5<br/>gini = 0.48<br/>samples = 12<br/>value = [12, 8]<br/>class = No Purchase>, fillcolor="#f6d5bd"] ;
428 -> 429 ;
430 [label=<gini = 0.0<br/>samples = 5<br/>value = [7, 0]<br/>class = No Purchase>, fillcolor="#e58139"] ;
429 -> 430 ;
431 [label=<ExitRates &le; 0.027<br/>gini = 0.473<br/>samples = 7<br/>value = [5, 8]<br/>class = Purchase>, fillcolor="#b5daf5"] ;
429 -> 431 ;
432 [label=<gini = 0.0<br/>samples = 2<br/>value = [3, 0]<br/>class = No Purchase>, fillcolor="#e58139"] ;
431 -> 432 ;
433 [label=<VisitorType &le; 0.5<br/>gini = 0.32<br/>samples = 5<br/>value = [2, 8]<br/>class = Purchase>, fillcolor="#6ab6ec"] ;
431 -> 433 ;
434 [label=<gini = 0.0<br/>samples = 1<br/>value = [0, 4]<br/>class = Purchase>, fillcolor="#399de5"] ;
433 -> 434 ;
435 [label=<Weekend &le; 0.5<br/>gini = 0.444<br/>samples = 4<br/>value = [2, 4]<br/>class = Purchase>, fillcolor="#9ccef2"] ;
433 -> 435 ;
436 [label=<ExitRates &le; 0.037<br/>gini = 0.32<br/>samples = 3<br/>value = [1, 4]<br/>class = Purchase>, fillcolor="#6ab6ec"] ;
435 -> 436 ;
437 [label=<gini = 0.0<br/>samples = 2<br/>value = [0, 4]<br/>class = Purchase>, fillcolor="#399de5"] ;
436 -> 437 ;
438 [label=<gini = 0.0<br/>samples = 1<br/>value = [1, 0]<br/>class = No Purchase>, fillcolor="#e58139"] ;
436 -> 438 ;
439 [label=<gini = 0.0<br/>samples = 1<br/>value = [1, 0]<br/>class = No Purchase>, fillcolor="#e58139"] ;
435 -> 439 ;
440 [label=<VisitorType &le; 0.5<br/>gini = 0.26<br/>samples = 15<br/>value = [4, 22]<br/>class = Purchase>, fillcolor="#5dafea"] ;
428 -> 440 ;
441 [label=<gini = 0.0<br/>samples = 4<br/>value = [0, 11]<br/>class = Purchase>, fillcolor="#399de5"] ;
440 -> 441 ;
442 [label=<Region &le; 2.5<br/>gini = 0.391<br/>samples = 11<br/>value = [4, 11]<br/>class = Purchase>, fillcolor="#81c1ee"] ;
440 -> 442 ;
443 [label=<ExitRates &le; 0.029<br/>gini = 0.165<br/>samples = 8<br/>value = [1, 10]<br/>class = Purchase>, fillcolor="#4da7e8"] ;
442 -> 443 ;
444 [label=<gini = 0.0<br/>samples = 1<br/>value = [1, 0]<br/>class = No Purchase>, fillcolor="#e58139"] ;
443 -> 444 ;
445 [label=<gini = 0.0<br/>samples = 7<br/>value = [0, 10]<br/>class = Purchase>, fillcolor="#399de5"] ;
443 -> 445 ;
446 [label=<Region &le; 5.0<br/>gini = 0.375<br/>samples = 3<br/>value = [3, 1]<br/>class = No Purchase>, fillcolor="#eeab7b"] ;
442 -> 446 ;
447 [label=<gini = 0.0<br/>samples = 2<br/>value = [3, 0]<br/>class = No Purchase>, fillcolor="#e58139"] ;
446 -> 447 ;
448 [label=<gini = 0.0<br/>samples = 1<br/>value = [0, 1]<br/>class = Purchase>, fillcolor="#399de5"] ;
446 -> 448 ;
449 [label=<gini = 0.0<br/>samples = 11<br/>value = [14, 0]<br/>class = No Purchase>, fillcolor="#e58139"] ;
417 -> 449 ;
450 [label=<gini = 0.0<br/>samples = 11<br/>value = [20, 0]<br/>class = No Purchase>, fillcolor="#e58139"] ;
416 -> 450 ;
451 [label=<PageValues &le; 0.066<br/>gini = 0.081<br/>samples = 1860<br/>value = [2831, 125]<br/>class = No Purchase>, fillcolor="#e68742"] ;
415 -> 451 ;
452 [label=<ProductRelated_Duration &le; 4789.085<br/>gini = 0.077<br/>samples = 1833<br/>value = [2792.0, 117.0]<br/>class = No Purchase>, fillcolor="#e68641"] ;
451 -> 452 ;
453 [label=<Administrative_Duration &le; 1579.758<br/>gini = 0.069<br/>samples = 1760<br/>value = [2695, 100]<br/>class = No Purchase>, fillcolor="#e68640"] ;
452 -> 453 ;
454 [label=<Region &le; 2.5<br/>gini = 0.068<br/>samples = 1755<br/>value = [2690, 98]<br/>class = No Purchase>, fillcolor="#e68640"] ;
453 -> 454 ;
455 [label=<TrafficType &le; 4.5<br/>gini = 0.086<br/>samples = 786<br/>value = [1168, 55]<br/>class = No Purchase>, fillcolor="#e68742"] ;
454 -> 455 ;
456 [label=<Browser &le; 9.0<br/>gini = 0.064<br/>samples = 619<br/>value = [929, 32]<br/>class = No Purchase>, fillcolor="#e68540"] ;
455 -> 456 ;
457 [label=<BounceRates &le; 0.039<br/>gini = 0.058<br/>samples = 608<br/>value = [912, 28]<br/>class = No Purchase>, fillcolor="#e6853f"] ;
456 -> 457 ;
458 [label=<ProductRelated &le; 67.5<br/>gini = 0.052<br/>samples = 585<br/>value = [882, 24]<br/>class = No Purchase>, fillcolor="#e6843e"] ;
457 -> 458 ;
459 [label=<Informational_Duration &le; 542.188<br/>gini = 0.041<br/>samples = 533<br/>value = [798, 17]<br/>class = No Purchase>, fillcolor="#e6843d"] ;
458 -> 459 ;
460 [label=<TrafficType &le; 3.5<br/>gini = 0.037<br/>samples = 526<br/>value = [791.0, 15.0]<br/>class = No Purchase>, fillcolor="#e5833d"] ;
459 -> 460 ;
461 [label=<ProductRelated_Duration &le; 53.85<br/>gini = 0.028<br/>samples = 457<br/>value = [688, 10]<br/>class = No Purchase>, fillcolor="#e5833c"] ;
460 -> 461 ;
462 [label=<Administrative &le; 4.0<br/>gini = 0.245<br/>samples = 9<br/>value = [12, 2]<br/>class = No Purchase>, fillcolor="#e9965a"] ;
461 -> 462 ;
463 [label=<gini = 0.0<br/>samples = 6<br/>value = [10, 0]<br/>class = No Purchase>, fillcolor="#e58139"] ;
462 -> 463 ;
464 [label=<Administrative &le; 5.5<br/>gini = 0.5<br/>samples = 3<br/>value = [2, 2]<br/>class = No Purchase>, fillcolor="#ffffff"] ;
462 -> 464 ;
465 [label=<gini = 0.0<br/>samples = 1<br/>value = [0, 2]<br/>class = Purchase>, fillcolor="#399de5"] ;
464 -> 465 ;
466 [label=<gini = 0.0<br/>samples = 2<br/>value = [2, 0]<br/>class = No Purchase>, fillcolor="#e58139"] ;
464 -> 466 ;
467 [label=<Administrative_Duration &le; 313.542<br/>gini = 0.023<br/>samples = 448<br/>value = [676, 8]<br/>class = No Purchase>, fillcolor="#e5823b"] ;
461 -> 467 ;
468 [label=<ExitRates &le; 0.063<br/>gini = 0.016<br/>samples = 411<br/>value = [627, 5]<br/>class = No Purchase>, fillcolor="#e5823b"] ;
467 -> 468 ;
469 [label=<ProductRelated_Duration &le; 250.25<br/>gini = 0.013<br/>samples = 401<br/>value = [613, 4]<br/>class = No Purchase>, fillcolor="#e5823a"] ;
468 -> 469 ;
470 [label=<TrafficType &le; 2.5<br/>gini = 0.058<br/>samples = 71<br/>value = [98, 3]<br/>class = No Purchase>, fillcolor="#e6853f"] ;
469 -> 470 ;
471 [label=<ProductRelated &le; 4.5<br/>gini = 0.028<br/>samples = 50<br/>value = [69, 1]<br/>class = No Purchase>, fillcolor="#e5833c"] ;
470 -> 471 ;
472 [label=<Administrative &le; 4.5<br/>gini = 0.219<br/>samples = 5<br/>value = [7, 1]<br/>class = No Purchase>, fillcolor="#e99355"] ;
471 -> 472 ;
473 [label=<gini = 0.0<br/>samples = 4<br/>value = [7, 0]<br/>class = No Purchase>, fillcolor="#e58139"] ;
472 -> 473 ;
474 [label=<gini = 0.0<br/>samples = 1<br/>value = [0, 1]<br/>class = Purchase>, fillcolor="#399de5"] ;
472 -> 474 ;
475 [label=<gini = 0.0<br/>samples = 45<br/>value = [62, 0]<br/>class = No Purchase>, fillcolor="#e58139"] ;
471 -> 475 ;
476 [label=<ProductRelated_Duration &le; 246.542<br/>gini = 0.121<br/>samples = 21<br/>value = [29, 2]<br/>class = No Purchase>, fillcolor="#e78a47"] ;
470 -> 476 ;
477 [label=<gini = 0.0<br/>samples = 20<br/>value = [29, 0]<br/>class = No Purchase>, fillcolor="#e58139"] ;
476 -> 477 ;
478 [label=<gini = 0.0<br/>samples = 1<br/>value = [0, 2]<br/>class = Purchase>, fillcolor="#399de5"] ;
476 -> 478 ;
479 [label=<Informational &le; 1.5<br/>gini = 0.004<br/>samples = 330<br/>value = [515, 1]<br/>class = No Purchase>, fillcolor="#e58139"] ;
469 -> 479 ;
480 [label=<gini = 0.0<br/>samples = 287<br/>value = [446, 0]<br/>class = No Purchase>, fillcolor="#e58139"] ;
479 -> 480 ;
481 [label=<BounceRates &le; 0.001<br/>gini = 0.028<br/>samples = 43<br/>value = [69, 1]<br/>class = No Purchase>, fillcolor="#e5833c"] ;
479 -> 481 ;
482 [label=<Month &le; 5.5<br/>gini = 0.067<br/>samples = 17<br/>value = [28, 1]<br/>class = No Purchase>, fillcolor="#e68640"] ;
481 -> 482 ;
483 [label=<gini = 0.0<br/>samples = 9<br/>value = [18, 0]<br/>class = No Purchase>, fillcolor="#e58139"] ;
482 -> 483 ;
484 [label=<OperatingSystems &le; 1.5<br/>gini = 0.165<br/>samples = 8<br/>value = [10, 1]<br/>class = No Purchase>, fillcolor="#e88e4d"] ;
482 -> 484 ;
485 [label=<gini = 0.0<br/>samples = 1<br/>value = [0, 1]<br/>class = Purchase>, fillcolor="#399de5"] ;
484 -> 485 ;
486 [label=<gini = 0.0<br/>samples = 7<br/>value = [10, 0]<br/>class = No Purchase>, fillcolor="#e58139"] ;
484 -> 486 ;
487 [label=<gini = 0.0<br/>samples = 26<br/>value = [41, 0]<br/>class = No Purchase>, fillcolor="#e58139"] ;
481 -> 487 ;
488 [label=<Informational_Duration &le; 4.5<br/>gini = 0.124<br/>samples = 10<br/>value = [14, 1]<br/>class = No Purchase>, fillcolor="#e78a47"] ;
468 -> 488 ;
489 [label=<gini = 0.0<br/>samples = 8<br/>value = [12, 0]<br/>class = No Purchase>, fillcolor="#e58139"] ;
488 -> 489 ;
490 [label=<ProductRelated &le; 15.0<br/>gini = 0.444<br/>samples = 2<br/>value = [2, 1]<br/>class = No Purchase>, fillcolor="#f2c09c"] ;
488 -> 490 ;
491 [label=<gini = 0.0<br/>samples = 1<br/>value = [0, 1]<br/>class = Purchase>, fillcolor="#399de5"] ;
490 -> 491 ;
492 [label=<gini = 0.0<br/>samples = 1<br/>value = [2, 0]<br/>class = No Purchase>, fillcolor="#e58139"] ;
490 -> 492 ;
493 [label=<Administrative_Duration &le; 315.25<br/>gini = 0.109<br/>samples = 37<br/>value = [49, 3]<br/>class = No Purchase>, fillcolor="#e78945"] ;
467 -> 493 ;
494 [label=<gini = 0.0<br/>samples = 1<br/>value = [0, 2]<br/>class = Purchase>, fillcolor="#399de5"] ;
493 -> 494 ;
495 [label=<VisitorType &le; 0.5<br/>gini = 0.039<br/>samples = 36<br/>value = [49, 1]<br/>class = No Purchase>, fillcolor="#e6843d"] ;
493 -> 495 ;
496 [label=<gini = 0.0<br/>samples = 33<br/>value = [45, 0]<br/>class = No Purchase>, fillcolor="#e58139"] ;
495 -> 496 ;
497 [label=<Administrative_Duration &le; 391.55<br/>gini = 0.32<br/>samples = 3<br/>value = [4, 1]<br/>class = No Purchase>, fillcolor="#eca06a"] ;
495 -> 497 ;
498 [label=<gini = 0.0<br/>samples = 2<br/>value = [4, 0]<br/>class = No Purchase>, fillcolor="#e58139"] ;
497 -> 498 ;
499 [label=<gini = 0.0<br/>samples = 1<br/>value = [0, 1]<br/>class = Purchase>, fillcolor="#399de5"] ;
497 -> 499 ;
500 [label=<Administrative_Duration &le; 207.875<br/>gini = 0.088<br/>samples = 69<br/>value = [103, 5]<br/>class = No Purchase>, fillcolor="#e68743"] ;
460 -> 500 ;
501 [label=<Month &le; 4.5<br/>gini = 0.058<br/>samples = 64<br/>value = [97, 3]<br/>class = No Purchase>, fillcolor="#e6853f"] ;
500 -> 501 ;
502 [label=<gini = 0.0<br/>samples = 46<br/>value = [71, 0]<br/>class = No Purchase>, fillcolor="#e58139"] ;
501 -> 502 ;
503 [label=<Browser &le; 3.0<br/>gini = 0.185<br/>samples = 18<br/>value = [26, 3]<br/>class = No Purchase>, fillcolor="#e89050"] ;
501 -> 503 ;
504 [label=<ProductRelated_Duration &le; 1768.395<br/>gini = 0.074<br/>samples = 16<br/>value = [25, 1]<br/>class = No Purchase>, fillcolor="#e68641"] ;
503 -> 504 ;
505 [label=<gini = 0.0<br/>samples = 15<br/>value = [25, 0]<br/>class = No Purchase>, fillcolor="#e58139"] ;
504 -> 505 ;
506 [label=<gini = 0.0<br/>samples = 1<br/>value = [0, 1]<br/>class = Purchase>, fillcolor="#399de5"] ;
504 -> 506 ;
507 [label=<ProductRelated_Duration &le; 423.017<br/>gini = 0.444<br/>samples = 2<br/>value = [1, 2]<br/>class = Purchase>, fillcolor="#9ccef2"] ;
503 -> 507 ;
508 [label=<gini = 0.0<br/>samples = 1<br/>value = [0, 2]<br/>class = Purchase>, fillcolor="#399de5"] ;
507 -> 508 ;
509 [label=<gini = 0.0<br/>samples = 1<br/>value = [1, 0]<br/>class = No Purchase>, fillcolor="#e58139"] ;
507 -> 509 ;
510 [label=<ProductRelated &le; 23.0<br/>gini = 0.375<br/>samples = 5<br/>value = [6, 2]<br/>class = No Purchase>, fillcolor="#eeab7b"] ;
500 -> 510 ;
511 [label=<Informational_Duration &le; 26.2<br/>gini = 0.5<br/>samples = 3<br/>value = [2, 2]<br/>class = No Purchase>, fillcolor="#ffffff"] ;
510 -> 511 ;
512 [label=<gini = 0.0<br/>samples = 2<br/>value = [2, 0]<br/>class = No Purchase>, fillcolor="#e58139"] ;
511 -> 512 ;
513 [label=<gini = 0.0<br/>samples = 1<br/>value = [0, 2]<br/>class = Purchase>, fillcolor="#399de5"] ;
511 -> 513 ;
514 [label=<gini = 0.0<br/>samples = 2<br/>value = [4, 0]<br/>class = No Purchase>, fillcolor="#e58139"] ;
510 -> 514 ;
515 [label=<ExitRates &le; 0.023<br/>gini = 0.346<br/>samples = 7<br/>value = [7, 2]<br/>class = No Purchase>, fillcolor="#eca572"] ;
459 -> 515 ;
516 [label=<Month &le; 4.0<br/>gini = 0.5<br/>samples = 3<br/>value = [2, 2]<br/>class = No Purchase>, fillcolor="#ffffff"] ;
515 -> 516 ;
517 [label=<gini = 0.0<br/>samples = 1<br/>value = [2, 0]<br/>class = No Purchase>, fillcolor="#e58139"] ;
516 -> 517 ;
518 [label=<gini = 0.0<br/>samples = 2<br/>value = [0, 2]<br/>class = Purchase>, fillcolor="#399de5"] ;
516 -> 518 ;
519 [label=<gini = 0.0<br/>samples = 4<br/>value = [5, 0]<br/>class = No Purchase>, fillcolor="#e58139"] ;
515 -> 519 ;
520 [label=<Region &le; 1.5<br/>gini = 0.142<br/>samples = 52<br/>value = [84, 7]<br/>class = No Purchase>, fillcolor="#e78c49"] ;
458 -> 520 ;
521 [label=<ExitRates &le; 0.033<br/>gini = 0.097<br/>samples = 44<br/>value = [74, 4]<br/>class = No Purchase>, fillcolor="#e68844"] ;
520 -> 521 ;
522 [label=<ProductRelated_Duration &le; 1356.439<br/>gini = 0.057<br/>samples = 39<br/>value = [66, 2]<br/>class = No Purchase>, fillcolor="#e6853f"] ;
521 -> 522 ;
523 [label=<BounceRates &le; 0.003<br/>gini = 0.245<br/>samples = 4<br/>value = [6, 1]<br/>class = No Purchase>, fillcolor="#e9965a"] ;
522 -> 523 ;
524 [label=<gini = 0.0<br/>samples = 1<br/>value = [0, 1]<br/>class = Purchase>, fillcolor="#399de5"] ;
523 -> 524 ;
525 [label=<gini = 0.0<br/>samples = 3<br/>value = [6, 0]<br/>class = No Purchase>, fillcolor="#e58139"] ;
523 -> 525 ;
526 [label=<ProductRelated &le; 69.5<br/>gini = 0.032<br/>samples = 35<br/>value = [60, 1]<br/>class = No Purchase>, fillcolor="#e5833c"] ;
522 -> 526 ;
527 [label=<BounceRates &le; 0.007<br/>gini = 0.5<br/>samples = 2<br/>value = [1, 1]<br/>class = No Purchase>, fillcolor="#ffffff"] ;
526 -> 527 ;
528 [label=<gini = 0.0<br/>samples = 1<br/>value = [1, 0]<br/>class = No Purchase>, fillcolor="#e58139"] ;
527 -> 528 ;
529 [label=<gini = 0.0<br/>samples = 1<br/>value = [0, 1]<br/>class = Purchase>, fillcolor="#399de5"] ;
527 -> 529 ;
530 [label=<gini = 0.0<br/>samples = 33<br/>value = [59, 0]<br/>class = No Purchase>, fillcolor="#e58139"] ;
526 -> 530 ;
531 [label=<BounceRates &le; 0.009<br/>gini = 0.32<br/>samples = 5<br/>value = [8, 2]<br/>class = No Purchase>, fillcolor="#eca06a"] ;
521 -> 531 ;
532 [label=<gini = 0.0<br/>samples = 2<br/>value = [4, 0]<br/>class = No Purchase>, fillcolor="#e58139"] ;
531 -> 532 ;
533 [label=<ProductRelated_Duration &le; 1660.976<br/>gini = 0.444<br/>samples = 3<br/>value = [4, 2]<br/>class = No Purchase>, fillcolor="#f2c09c"] ;
531 -> 533 ;
534 [label=<gini = 0.0<br/>samples = 1<br/>value = [0, 2]<br/>class = Purchase>, fillcolor="#399de5"] ;
533 -> 534 ;
535 [label=<gini = 0.0<br/>samples = 2<br/>value = [4, 0]<br/>class = No Purchase>, fillcolor="#e58139"] ;
533 -> 535 ;
536 [label=<ProductRelated_Duration &le; 1650.542<br/>gini = 0.355<br/>samples = 8<br/>value = [10, 3]<br/>class = No Purchase>, fillcolor="#eda774"] ;
520 -> 536 ;
537 [label=<gini = 0.0<br/>samples = 1<br/>value = [0, 2]<br/>class = Purchase>, fillcolor="#399de5"] ;
536 -> 537 ;
538 [label=<Informational &le; 0.5<br/>gini = 0.165<br/>samples = 7<br/>value = [10, 1]<br/>class = No Purchase>, fillcolor="#e88e4d"] ;
536 -> 538 ;
539 [label=<Administrative_Duration &le; 190.281<br/>gini = 0.444<br/>samples = 2<br/>value = [2, 1]<br/>class = No Purchase>, fillcolor="#f2c09c"] ;
538 -> 539 ;
540 [label=<gini = 0.0<br/>samples = 1<br/>value = [0, 1]<br/>class = Purchase>, fillcolor="#399de5"] ;
539 -> 540 ;
541 [label=<gini = 0.0<br/>samples = 1<br/>value = [2, 0]<br/>class = No Purchase>, fillcolor="#e58139"] ;
539 -> 541 ;
542 [label=<gini = 0.0<br/>samples = 5<br/>value = [8, 0]<br/>class = No Purchase>, fillcolor="#e58139"] ;
538 -> 542 ;
543 [label=<OperatingSystems &le; 2.5<br/>gini = 0.208<br/>samples = 23<br/>value = [30, 4]<br/>class = No Purchase>, fillcolor="#e89253"] ;
457 -> 543 ;
544 [label=<gini = 0.0<br/>samples = 14<br/>value = [22, 0]<br/>class = No Purchase>, fillcolor="#e58139"] ;
543 -> 544 ;
545 [label=<Informational_Duration &le; 122.15<br/>gini = 0.444<br/>samples = 9<br/>value = [8, 4]<br/>class = No Purchase>, fillcolor="#f2c09c"] ;
543 -> 545 ;
546 [label=<Region &le; 1.5<br/>gini = 0.48<br/>samples = 8<br/>value = [6, 4]<br/>class = No Purchase>, fillcolor="#f6d5bd"] ;
545 -> 546 ;
547 [label=<Administrative_Duration &le; 128.722<br/>gini = 0.5<br/>samples = 6<br/>value = [4, 4]<br/>class = No Purchase>, fillcolor="#ffffff"] ;
546 -> 547 ;
548 [label=<Month &le; 4.5<br/>gini = 0.444<br/>samples = 5<br/>value = [4, 2]<br/>class = No Purchase>, fillcolor="#f2c09c"] ;
547 -> 548 ;
549 [label=<gini = 0.0<br/>samples = 3<br/>value = [4, 0]<br/>class = No Purchase>, fillcolor="#e58139"] ;
548 -> 549 ;
550 [label=<gini = 0.0<br/>samples = 2<br/>value = [0, 2]<br/>class = Purchase>, fillcolor="#399de5"] ;
548 -> 550 ;
551 [label=<gini = 0.0<br/>samples = 1<br/>value = [0, 2]<br/>class = Purchase>, fillcolor="#399de5"] ;
547 -> 551 ;
552 [label=<gini = 0.0<br/>samples = 2<br/>value = [2, 0]<br/>class = No Purchase>, fillcolor="#e58139"] ;
546 -> 552 ;
553 [label=<gini = 0.0<br/>samples = 1<br/>value = [2, 0]<br/>class = No Purchase>, fillcolor="#e58139"] ;
545 -> 553 ;
554 [label=<Informational &le; 1.5<br/>gini = 0.308<br/>samples = 11<br/>value = [17, 4]<br/>class = No Purchase>, fillcolor="#eb9f68"] ;
456 -> 554 ;
555 [label=<Month &le; 7.5<br/>gini = 0.105<br/>samples = 10<br/>value = [17, 1]<br/>class = No Purchase>, fillcolor="#e78845"] ;
554 -> 555 ;
556 [label=<gini = 0.0<br/>samples = 8<br/>value = [16, 0]<br/>class = No Purchase>, fillcolor="#e58139"] ;
555 -> 556 ;
557 [label=<ExitRates &le; 0.034<br/>gini = 0.5<br/>samples = 2<br/>value = [1, 1]<br/>class = No Purchase>, fillcolor="#ffffff"] ;
555 -> 557 ;
558 [label=<gini = 0.0<br/>samples = 1<br/>value = [1, 0]<br/>class = No Purchase>, fillcolor="#e58139"] ;
557 -> 558 ;
559 [label=<gini = 0.0<br/>samples = 1<br/>value = [0, 1]<br/>class = Purchase>, fillcolor="#399de5"] ;
557 -> 559 ;
560 [label=<gini = 0.0<br/>samples = 1<br/>value = [0, 3]<br/>class = Purchase>, fillcolor="#399de5"] ;
554 -> 560 ;
561 [label=<ProductRelated &le; 59.5<br/>gini = 0.16<br/>samples = 167<br/>value = [239, 23]<br/>class = No Purchase>, fillcolor="#e88d4c"] ;
455 -> 561 ;
562 [label=<Month &le; 2.5<br/>gini = 0.13<br/>samples = 146<br/>value = [213, 16]<br/>class = No Purchase>, fillcolor="#e78a48"] ;
561 -> 562 ;
563 [label=<gini = 0.0<br/>samples = 59<br/>value = [89, 0]<br/>class = No Purchase>, fillcolor="#e58139"] ;
562 -> 563 ;
564 [label=<Weekend &le; 0.5<br/>gini = 0.202<br/>samples = 87<br/>value = [124, 16]<br/>class = No Purchase>, fillcolor="#e89153"] ;
562 -> 564 ;
565 [label=<Browser &le; 1.5<br/>gini = 0.135<br/>samples = 65<br/>value = [102, 8]<br/>class = No Purchase>, fillcolor="#e78b49"] ;
564 -> 565 ;
566 [label=<Administrative &le; 5.5<br/>gini = 0.332<br/>samples = 10<br/>value = [15, 4]<br/>class = No Purchase>, fillcolor="#eca36e"] ;
565 -> 566 ;
567 [label=<Region &le; 1.5<br/>gini = 0.117<br/>samples = 8<br/>value = [15, 1]<br/>class = No Purchase>, fillcolor="#e78946"] ;
566 -> 567 ;
568 [label=<gini = 0.0<br/>samples = 5<br/>value = [10, 0]<br/>class = No Purchase>, fillcolor="#e58139"] ;
567 -> 568 ;
569 [label=<VisitorType &le; 0.5<br/>gini = 0.278<br/>samples = 3<br/>value = [5, 1]<br/>class = No Purchase>, fillcolor="#ea9a61"] ;
567 -> 569 ;
570 [label=<gini = 0.0<br/>samples = 1<br/>value = [4, 0]<br/>class = No Purchase>, fillcolor="#e58139"] ;
569 -> 570 ;
571 [label=<ProductRelated &le; 10.5<br/>gini = 0.5<br/>samples = 2<br/>value = [1, 1]<br/>class = No Purchase>, fillcolor="#ffffff"] ;
569 -> 571 ;
572 [label=<gini = 0.0<br/>samples = 1<br/>value = [1, 0]<br/>class = No Purchase>, fillcolor="#e58139"] ;
571 -> 572 ;
573 [label=<gini = 0.0<br/>samples = 1<br/>value = [0, 1]<br/>class = Purchase>, fillcolor="#399de5"] ;
571 -> 573 ;
574 [label=<gini = 0.0<br/>samples = 2<br/>value = [0, 3]<br/>class = Purchase>, fillcolor="#399de5"] ;
566 -> 574 ;
575 [label=<Informational_Duration &le; 4.5<br/>gini = 0.084<br/>samples = 55<br/>value = [87, 4]<br/>class = No Purchase>, fillcolor="#e68742"] ;
565 -> 575 ;
576 [label=<ProductRelated &le; 9.5<br/>gini = 0.051<br/>samples = 45<br/>value = [75, 2]<br/>class = No Purchase>, fillcolor="#e6843e"] ;
575 -> 576 ;
577 [label=<Administrative &le; 3.5<br/>gini = 0.18<br/>samples = 13<br/>value = [18, 2]<br/>class = No Purchase>, fillcolor="#e88f4f"] ;
576 -> 577 ;
578 [label=<gini = 0.0<br/>samples = 6<br/>value = [10, 0]<br/>class = No Purchase>, fillcolor="#e58139"] ;
577 -> 578 ;
579 [label=<Administrative &le; 4.5<br/>gini = 0.32<br/>samples = 7<br/>value = [8, 2]<br/>class = No Purchase>, fillcolor="#eca06a"] ;
577 -> 579 ;
580 [label=<Administrative_Duration &le; 134.525<br/>gini = 0.5<br/>samples = 3<br/>value = [2, 2]<br/>class = No Purchase>, fillcolor="#ffffff"] ;
579 -> 580 ;
581 [label=<gini = 0.0<br/>samples = 1<br/>value = [0, 2]<br/>class = Purchase>, fillcolor="#399de5"] ;
580 -> 581 ;
582 [label=<gini = 0.0<br/>samples = 2<br/>value = [2, 0]<br/>class = No Purchase>, fillcolor="#e58139"] ;
580 -> 582 ;
583 [label=<gini = 0.0<br/>samples = 4<br/>value = [6, 0]<br/>class = No Purchase>, fillcolor="#e58139"] ;
579 -> 583 ;
584 [label=<gini = 0.0<br/>samples = 32<br/>value = [57, 0]<br/>class = No Purchase>, fillcolor="#e58139"] ;
576 -> 584 ;
585 [label=<Administrative_Duration &le; 6.5<br/>gini = 0.245<br/>samples = 10<br/>value = [12, 2]<br/>class = No Purchase>, fillcolor="#e9965a"] ;
575 -> 585 ;
586 [label=<gini = 0.0<br/>samples = 1<br/>value = [0, 1]<br/>class = Purchase>, fillcolor="#399de5"] ;
585 -> 586 ;
587 [label=<Administrative_Duration &le; 17.8<br/>gini = 0.142<br/>samples = 9<br/>value = [12, 1]<br/>class = No Purchase>, fillcolor="#e78c49"] ;
585 -> 587 ;
588 [label=<ProductRelated_Duration &le; 729.438<br/>gini = 0.444<br/>samples = 2<br/>value = [2, 1]<br/>class = No Purchase>, fillcolor="#f2c09c"] ;
587 -> 588 ;
589 [label=<gini = 0.0<br/>samples = 1<br/>value = [2, 0]<br/>class = No Purchase>, fillcolor="#e58139"] ;
588 -> 589 ;
590 [label=<gini = 0.0<br/>samples = 1<br/>value = [0, 1]<br/>class = Purchase>, fillcolor="#399de5"] ;
588 -> 590 ;
591 [label=<gini = 0.0<br/>samples = 7<br/>value = [10, 0]<br/>class = No Purchase>, fillcolor="#e58139"] ;
587 -> 591 ;
592 [label=<Browser &le; 3.0<br/>gini = 0.391<br/>samples = 22<br/>value = [22, 8]<br/>class = No Purchase>, fillcolor="#eeaf81"] ;
564 -> 592 ;
593 [label=<BounceRates &le; 0.038<br/>gini = 0.236<br/>samples = 18<br/>value = [19, 3]<br/>class = No Purchase>, fillcolor="#e99558"] ;
592 -> 593 ;
594 [label=<ProductRelated_Duration &le; 518.613<br/>gini = 0.095<br/>samples = 17<br/>value = [19, 1]<br/>class = No Purchase>, fillcolor="#e68843"] ;
593 -> 594 ;
595 [label=<ProductRelated_Duration &le; 356.925<br/>gini = 0.198<br/>samples = 8<br/>value = [8, 1]<br/>class = No Purchase>, fillcolor="#e89152"] ;
594 -> 595 ;
596 [label=<gini = 0.0<br/>samples = 7<br/>value = [8, 0]<br/>class = No Purchase>, fillcolor="#e58139"] ;
595 -> 596 ;
597 [label=<gini = 0.0<br/>samples = 1<br/>value = [0, 1]<br/>class = Purchase>, fillcolor="#399de5"] ;
595 -> 597 ;
598 [label=<gini = 0.0<br/>samples = 9<br/>value = [11, 0]<br/>class = No Purchase>, fillcolor="#e58139"] ;
594 -> 598 ;
599 [label=<gini = 0.0<br/>samples = 1<br/>value = [0, 2]<br/>class = Purchase>, fillcolor="#399de5"] ;
593 -> 599 ;
600 [label=<ExitRates &le; 0.014<br/>gini = 0.469<br/>samples = 4<br/>value = [3, 5]<br/>class = Purchase>, fillcolor="#b0d8f5"] ;
592 -> 600 ;
601 [label=<gini = 0.0<br/>samples = 2<br/>value = [3, 0]<br/>class = No Purchase>, fillcolor="#e58139"] ;
600 -> 601 ;
602 [label=<gini = 0.0<br/>samples = 2<br/>value = [0, 5]<br/>class = Purchase>, fillcolor="#399de5"] ;
600 -> 602 ;
603 [label=<Month &le; 4.5<br/>gini = 0.334<br/>samples = 21<br/>value = [26, 7]<br/>class = No Purchase>, fillcolor="#eca36e"] ;
561 -> 603 ;
604 [label=<gini = 0.0<br/>samples = 7<br/>value = [13, 0]<br/>class = No Purchase>, fillcolor="#e58139"] ;
603 -> 604 ;
605 [label=<Administrative_Duration &le; 46.917<br/>gini = 0.455<br/>samples = 14<br/>value = [13, 7]<br/>class = No Purchase>, fillcolor="#f3c5a4"] ;
603 -> 605 ;
606 [label=<gini = 0.0<br/>samples = 3<br/>value = [0, 4]<br/>class = Purchase>, fillcolor="#399de5"] ;
605 -> 606 ;
607 [label=<Administrative_Duration &le; 564.0<br/>gini = 0.305<br/>samples = 11<br/>value = [13, 3]<br/>class = No Purchase>, fillcolor="#eb9e67"] ;
605 -> 607 ;
608 [label=<ProductRelated_Duration &le; 2219.833<br/>gini = 0.231<br/>samples = 10<br/>value = [13, 2]<br/>class = No Purchase>, fillcolor="#e99457"] ;
607 -> 608 ;
609 [label=<ProductRelated &le; 62.5<br/>gini = 0.48<br/>samples = 4<br/>value = [3, 2]<br/>class = No Purchase>, fillcolor="#f6d5bd"] ;
608 -> 609 ;
610 [label=<gini = 0.0<br/>samples = 1<br/>value = [0, 2]<br/>class = Purchase>, fillcolor="#399de5"] ;
609 -> 610 ;
611 [label=<gini = 0.0<br/>samples = 3<br/>value = [3, 0]<br/>class = No Purchase>, fillcolor="#e58139"] ;
609 -> 611 ;
612 [label=<gini = 0.0<br/>samples = 6<br/>value = [10, 0]<br/>class = No Purchase>, fillcolor="#e58139"] ;
608 -> 612 ;
613 [label=<gini = 0.0<br/>samples = 1<br/>value = [0, 1]<br/>class = Purchase>, fillcolor="#399de5"] ;
607 -> 613 ;
614 [label=<ProductRelated_Duration &le; 103.475<br/>gini = 0.053<br/>samples = 969<br/>value = [1522, 43]<br/>class = No Purchase>, fillcolor="#e6853f"] ;
454 -> 614 ;
615 [label=<Month &le; 3.5<br/>gini = 0.224<br/>samples = 71<br/>value = [95, 14]<br/>class = No Purchase>, fillcolor="#e99456"] ;
614 -> 615 ;
616 [label=<gini = 0.0<br/>samples = 34<br/>value = [51, 0]<br/>class = No Purchase>, fillcolor="#e58139"] ;
615 -> 616 ;
617 [label=<Administrative &le; 2.5<br/>gini = 0.366<br/>samples = 37<br/>value = [44, 14]<br/>class = No Purchase>, fillcolor="#eda978"] ;
615 -> 617 ;
618 [label=<gini = 0.0<br/>samples = 12<br/>value = [19, 0]<br/>class = No Purchase>, fillcolor="#e58139"] ;
617 -> 618 ;
619 [label=<ProductRelated_Duration &le; 46.5<br/>gini = 0.46<br/>samples = 25<br/>value = [25.0, 14.0]<br/>class = No Purchase>, fillcolor="#f4c8a8"] ;
617 -> 619 ;
620 [label=<gini = 0.0<br/>samples = 3<br/>value = [5, 0]<br/>class = No Purchase>, fillcolor="#e58139"] ;
619 -> 620 ;
621 [label=<ProductRelated &le; 3.5<br/>gini = 0.484<br/>samples = 22<br/>value = [20, 14]<br/>class = No Purchase>, fillcolor="#f7d9c4"] ;
619 -> 621 ;
622 [label=<TrafficType &le; 14.0<br/>gini = 0.426<br/>samples = 6<br/>value = [4, 9]<br/>class = Purchase>, fillcolor="#91c9f1"] ;
621 -> 622 ;
623 [label=<ProductRelated_Duration &le; 73.375<br/>gini = 0.298<br/>samples = 5<br/>value = [2, 9]<br/>class = Purchase>, fillcolor="#65b3eb"] ;
622 -> 623 ;
624 [label=<TrafficType &le; 3.5<br/>gini = 0.5<br/>samples = 2<br/>value = [2, 2]<br/>class = No Purchase>, fillcolor="#ffffff"] ;
623 -> 624 ;
625 [label=<gini = 0.0<br/>samples = 1<br/>value = [0, 2]<br/>class = Purchase>, fillcolor="#399de5"] ;
624 -> 625 ;
626 [label=<gini = 0.0<br/>samples = 1<br/>value = [2, 0]<br/>class = No Purchase>, fillcolor="#e58139"] ;
624 -> 626 ;
627 [label=<gini = 0.0<br/>samples = 3<br/>value = [0, 7]<br/>class = Purchase>, fillcolor="#399de5"] ;
623 -> 627 ;
628 [label=<gini = 0.0<br/>samples = 1<br/>value = [2, 0]<br/>class = No Purchase>, fillcolor="#e58139"] ;
622 -> 628 ;
629 [label=<ProductRelated_Duration &le; 51.917<br/>gini = 0.363<br/>samples = 16<br/>value = [16, 5]<br/>class = No Purchase>, fillcolor="#eda877"] ;
621 -> 629 ;
630 [label=<gini = 0.0<br/>samples = 1<br/>value = [0, 2]<br/>class = Purchase>, fillcolor="#399de5"] ;
629 -> 630 ;
631 [label=<ExitRates &le; 0.014<br/>gini = 0.266<br/>samples = 15<br/>value = [16, 3]<br/>class = No Purchase>, fillcolor="#ea995e"] ;
629 -> 631 ;
632 [label=<ProductRelated_Duration &le; 87.558<br/>gini = 0.5<br/>samples = 2<br/>value = [1, 1]<br/>class = No Purchase>, fillcolor="#ffffff"] ;
631 -> 632 ;
633 [label=<gini = 0.0<br/>samples = 1<br/>value = [1, 0]<br/>class = No Purchase>, fillcolor="#e58139"] ;
632 -> 633 ;
634 [label=<gini = 0.0<br/>samples = 1<br/>value = [0, 1]<br/>class = Purchase>, fillcolor="#399de5"] ;
632 -> 634 ;
635 [label=<Month &le; 4.5<br/>gini = 0.208<br/>samples = 13<br/>value = [15, 2]<br/>class = No Purchase>, fillcolor="#e89253"] ;
631 -> 635 ;
636 [label=<OperatingSystems &le; 1.5<br/>gini = 0.5<br/>samples = 2<br/>value = [1, 1]<br/>class = No Purchase>, fillcolor="#ffffff"] ;
635 -> 636 ;
637 [label=<gini = 0.0<br/>samples = 1<br/>value = [1, 0]<br/>class = No Purchase>, fillcolor="#e58139"] ;
636 -> 637 ;
638 [label=<gini = 0.0<br/>samples = 1<br/>value = [0, 1]<br/>class = Purchase>, fillcolor="#399de5"] ;
636 -> 638 ;
639 [label=<Administrative &le; 5.5<br/>gini = 0.124<br/>samples = 11<br/>value = [14, 1]<br/>class = No Purchase>, fillcolor="#e78a47"] ;
635 -> 639 ;
640 [label=<gini = 0.0<br/>samples = 8<br/>value = [11, 0]<br/>class = No Purchase>, fillcolor="#e58139"] ;
639 -> 640 ;
641 [label=<ProductRelated &le; 6.0<br/>gini = 0.375<br/>samples = 3<br/>value = [3, 1]<br/>class = No Purchase>, fillcolor="#eeab7b"] ;
639 -> 641 ;
642 [label=<gini = 0.0<br/>samples = 1<br/>value = [2, 0]<br/>class = No Purchase>, fillcolor="#e58139"] ;
641 -> 642 ;
643 [label=<Administrative_Duration &le; 115.333<br/>gini = 0.5<br/>samples = 2<br/>value = [1, 1]<br/>class = No Purchase>, fillcolor="#ffffff"] ;
641 -> 643 ;
644 [label=<gini = 0.0<br/>samples = 1<br/>value = [0, 1]<br/>class = Purchase>, fillcolor="#399de5"] ;
643 -> 644 ;
645 [label=<gini = 0.0<br/>samples = 1<br/>value = [1, 0]<br/>class = No Purchase>, fillcolor="#e58139"] ;
643 -> 645 ;
646 [label=<ProductRelated &le; 120.0<br/>gini = 0.039<br/>samples = 898<br/>value = [1427.0, 29.0]<br/>class = No Purchase>, fillcolor="#e6843d"] ;
614 -> 646 ;
647 [label=<Month &le; 3.5<br/>gini = 0.033<br/>samples = 878<br/>value = [1395, 24]<br/>class = No Purchase>, fillcolor="#e5833c"] ;
646 -> 647 ;
648 [label=<ProductRelated_Duration &le; 701.767<br/>gini = 0.003<br/>samples = 439<br/>value = [711, 1]<br/>class = No Purchase>, fillcolor="#e58139"] ;
647 -> 648 ;
649 [label=<gini = 0.0<br/>samples = 237<br/>value = [378, 0]<br/>class = No Purchase>, fillcolor="#e58139"] ;
648 -> 649 ;
650 [label=<Informational &le; 0.5<br/>gini = 0.006<br/>samples = 202<br/>value = [333, 1]<br/>class = No Purchase>, fillcolor="#e5813a"] ;
648 -> 650 ;
651 [label=<ProductRelated &le; 12.5<br/>gini = 0.008<br/>samples = 138<br/>value = [239, 1]<br/>class = No Purchase>, fillcolor="#e5823a"] ;
650 -> 651 ;
652 [label=<ProductRelated_Duration &le; 798.475<br/>gini = 0.165<br/>samples = 8<br/>value = [10, 1]<br/>class = No Purchase>, fillcolor="#e88e4d"] ;
651 -> 652 ;
653 [label=<gini = 0.0<br/>samples = 1<br/>value = [0, 1]<br/>class = Purchase>, fillcolor="#399de5"] ;
652 -> 653 ;
654 [label=<gini = 0.0<br/>samples = 7<br/>value = [10, 0]<br/>class = No Purchase>, fillcolor="#e58139"] ;
652 -> 654 ;
655 [label=<gini = 0.0<br/>samples = 130<br/>value = [229, 0]<br/>class = No Purchase>, fillcolor="#e58139"] ;
651 -> 655 ;
656 [label=<gini = 0.0<br/>samples = 64<br/>value = [94, 0]<br/>class = No Purchase>, fillcolor="#e58139"] ;
650 -> 656 ;
657 [label=<BounceRates &le; 0.021<br/>gini = 0.063<br/>samples = 439<br/>value = [684, 23]<br/>class = No Purchase>, fillcolor="#e68540"] ;
647 -> 657 ;
658 [label=<TrafficType &le; 3.5<br/>gini = 0.071<br/>samples = 389<br/>value = [600.0, 23.0]<br/>class = No Purchase>, fillcolor="#e68641"] ;
657 -> 658 ;
659 [label=<BounceRates &le; 0.021<br/>gini = 0.044<br/>samples = 278<br/>value = [436, 10]<br/>class = No Purchase>, fillcolor="#e6843e"] ;
658 -> 659 ;
660 [label=<ProductRelated_Duration &le; 4352.187<br/>gini = 0.04<br/>samples = 277<br/>value = [436, 9]<br/>class = No Purchase>, fillcolor="#e6843d"] ;
659 -> 660 ;
661 [label=<Month &le; 8.5<br/>gini = 0.035<br/>samples = 275<br/>value = [435.0, 8.0]<br/>class = No Purchase>, fillcolor="#e5833d"] ;
660 -> 661 ;
662 [label=<Informational_Duration &le; 99.4<br/>gini = 0.05<br/>samples = 195<br/>value = [302, 8]<br/>class = No Purchase>, fillcolor="#e6843e"] ;
661 -> 662 ;
663 [label=<Informational_Duration &le; 96.25<br/>gini = 0.058<br/>samples = 171<br/>value = [261, 8]<br/>class = No Purchase>, fillcolor="#e6853f"] ;
662 -> 663 ;
664 [label=<Region &le; 8.5<br/>gini = 0.051<br/>samples = 170<br/>value = [261, 7]<br/>class = No Purchase>, fillcolor="#e6843e"] ;
663 -> 664 ;
665 [label=<ExitRates &le; 0.018<br/>gini = 0.039<br/>samples = 157<br/>value = [244, 5]<br/>class = No Purchase>, fillcolor="#e6843d"] ;
664 -> 665 ;
666 [label=<gini = 0.0<br/>samples = 73<br/>value = [122, 0]<br/>class = No Purchase>, fillcolor="#e58139"] ;
665 -> 666 ;
667 [label=<BounceRates &le; 0.008<br/>gini = 0.076<br/>samples = 84<br/>value = [122, 5]<br/>class = No Purchase>, fillcolor="#e68641"] ;
665 -> 667 ;
668 [label=<Region &le; 3.5<br/>gini = 0.136<br/>samples = 48<br/>value = [63, 5]<br/>class = No Purchase>, fillcolor="#e78b49"] ;
667 -> 668 ;
669 [label=<Browser &le; 1.5<br/>gini = 0.32<br/>samples = 18<br/>value = [16, 4]<br/>class = No Purchase>, fillcolor="#eca06a"] ;
668 -> 669 ;
670 [label=<gini = 0.0<br/>samples = 4<br/>value = [5, 0]<br/>class = No Purchase>, fillcolor="#e58139"] ;
669 -> 670 ;
671 [label=<ProductRelated_Duration &le; 2529.569<br/>gini = 0.391<br/>samples = 14<br/>value = [11, 4]<br/>class = No Purchase>, fillcolor="#eeaf81"] ;
669 -> 671 ;
672 [label=<Browser &le; 3.5<br/>gini = 0.337<br/>samples = 13<br/>value = [11, 3]<br/>class = No Purchase>, fillcolor="#eca36f"] ;
671 -> 672 ;
673 [label=<ExitRates &le; 0.032<br/>gini = 0.278<br/>samples = 11<br/>value = [10, 2]<br/>class = No Purchase>, fillcolor="#ea9a61"] ;
672 -> 673 ;
674 [label=<Month &le; 5.5<br/>gini = 0.165<br/>samples = 10<br/>value = [10, 1]<br/>class = No Purchase>, fillcolor="#e88e4d"] ;
673 -> 674 ;
675 [label=<gini = 0.0<br/>samples = 1<br/>value = [2, 0]<br/>class = No Purchase>, fillcolor="#e58139"] ;
674 -> 675 ;
676 [label=<Administrative_Duration &le; 142.792<br/>gini = 0.198<br/>samples = 9<br/>value = [8, 1]<br/>class = No Purchase>, fillcolor="#e89152"] ;
674 -> 676 ;
677 [label=<gini = 0.0<br/>samples = 7<br/>value = [7, 0]<br/>class = No Purchase>, fillcolor="#e58139"] ;
676 -> 677 ;
678 [label=<ProductRelated_Duration &le; 1916.499<br/>gini = 0.5<br/>samples = 2<br/>value = [1, 1]<br/>class = No Purchase>, fillcolor="#ffffff"] ;
676 -> 678 ;
679 [label=<gini = 0.0<br/>samples = 1<br/>value = [0, 1]<br/>class = Purchase>, fillcolor="#399de5"] ;
678 -> 679 ;
680 [label=<gini = 0.0<br/>samples = 1<br/>value = [1, 0]<br/>class = No Purchase>, fillcolor="#e58139"] ;
678 -> 680 ;
681 [label=<gini = 0.0<br/>samples = 1<br/>value = [0, 1]<br/>class = Purchase>, fillcolor="#399de5"] ;
673 -> 681 ;
682 [label=<ProductRelated_Duration &le; 502.992<br/>gini = 0.5<br/>samples = 2<br/>value = [1, 1]<br/>class = No Purchase>, fillcolor="#ffffff"] ;
672 -> 682 ;
683 [label=<gini = 0.0<br/>samples = 1<br/>value = [1, 0]<br/>class = No Purchase>, fillcolor="#e58139"] ;
682 -> 683 ;
684 [label=<gini = 0.0<br/>samples = 1<br/>value = [0, 1]<br/>class = Purchase>, fillcolor="#399de5"] ;
682 -> 684 ;
685 [label=<gini = 0.0<br/>samples = 1<br/>value = [0, 1]<br/>class = Purchase>, fillcolor="#399de5"] ;
671 -> 685 ;
686 [label=<ExitRates &le; 0.018<br/>gini = 0.041<br/>samples = 30<br/>value = [47, 1]<br/>class = No Purchase>, fillcolor="#e6843d"] ;
668 -> 686 ;
687 [label=<Informational &le; 0.5<br/>gini = 0.278<br/>samples = 5<br/>value = [5, 1]<br/>class = No Purchase>, fillcolor="#ea9a61"] ;
686 -> 687 ;
688 [label=<gini = 0.0<br/>samples = 4<br/>value = [5, 0]<br/>class = No Purchase>, fillcolor="#e58139"] ;
687 -> 688 ;
689 [label=<gini = 0.0<br/>samples = 1<br/>value = [0, 1]<br/>class = Purchase>, fillcolor="#399de5"] ;
687 -> 689 ;
690 [label=<gini = 0.0<br/>samples = 25<br/>value = [42, 0]<br/>class = No Purchase>, fillcolor="#e58139"] ;
686 -> 690 ;
691 [label=<gini = 0.0<br/>samples = 36<br/>value = [59, 0]<br/>class = No Purchase>, fillcolor="#e58139"] ;
667 -> 691 ;
692 [label=<ExitRates &le; 0.014<br/>gini = 0.188<br/>samples = 13<br/>value = [17, 2]<br/>class = No Purchase>, fillcolor="#e89050"] ;
664 -> 692 ;
693 [label=<gini = 0.0<br/>samples = 4<br/>value = [6, 0]<br/>class = No Purchase>, fillcolor="#e58139"] ;
692 -> 693 ;
694 [label=<Month &le; 7.5<br/>gini = 0.26<br/>samples = 9<br/>value = [11, 2]<br/>class = No Purchase>, fillcolor="#ea985d"] ;
692 -> 694 ;
695 [label=<Administrative_Duration &le; 79.5<br/>gini = 0.153<br/>samples = 8<br/>value = [11, 1]<br/>class = No Purchase>, fillcolor="#e78c4b"] ;
694 -> 695 ;
696 [label=<Month &le; 6.0<br/>gini = 0.5<br/>samples = 2<br/>value = [1, 1]<br/>class = No Purchase>, fillcolor="#ffffff"] ;
695 -> 696 ;
697 [label=<gini = 0.0<br/>samples = 1<br/>value = [1, 0]<br/>class = No Purchase>, fillcolor="#e58139"] ;
696 -> 697 ;
698 [label=<gini = 0.0<br/>samples = 1<br/>value = [0, 1]<br/>class = Purchase>, fillcolor="#399de5"] ;
696 -> 698 ;
699 [label=<gini = 0.0<br/>samples = 6<br/>value = [10, 0]<br/>class = No Purchase>, fillcolor="#e58139"] ;
695 -> 699 ;
700 [label=<gini = 0.0<br/>samples = 1<br/>value = [0, 1]<br/>class = Purchase>, fillcolor="#399de5"] ;
694 -> 700 ;
701 [label=<gini = 0.0<br/>samples = 1<br/>value = [0, 1]<br/>class = Purchase>, fillcolor="#399de5"] ;
663 -> 701 ;
702 [label=<gini = 0.0<br/>samples = 24<br/>value = [41, 0]<br/>class = No Purchase>, fillcolor="#e58139"] ;
662 -> 702 ;
703 [label=<gini = 0.0<br/>samples = 80<br/>value = [133, 0]<br/>class = No Purchase>, fillcolor="#e58139"] ;
661 -> 703 ;
704 [label=<Informational_Duration &le; 8.0<br/>gini = 0.5<br/>samples = 2<br/>value = [1, 1]<br/>class = No Purchase>, fillcolor="#ffffff"] ;
660 -> 704 ;
705 [label=<gini = 0.0<br/>samples = 1<br/>value = [1, 0]<br/>class = No Purchase>, fillcolor="#e58139"] ;
704 -> 705 ;
706 [label=<gini = 0.0<br/>samples = 1<br/>value = [0, 1]<br/>class = Purchase>, fillcolor="#399de5"] ;
704 -> 706 ;
707 [label=<gini = 0.0<br/>samples = 1<br/>value = [0, 1]<br/>class = Purchase>, fillcolor="#399de5"] ;
659 -> 707 ;
708 [label=<Month &le; 7.5<br/>gini = 0.136<br/>samples = 111<br/>value = [164, 13]<br/>class = No Purchase>, fillcolor="#e78b49"] ;
658 -> 708 ;
709 [label=<Informational_Duration &le; 109.45<br/>gini = 0.217<br/>samples = 66<br/>value = [92, 13]<br/>class = No Purchase>, fillcolor="#e99355"] ;
708 -> 709 ;
710 [label=<ProductRelated_Duration &le; 1911.648<br/>gini = 0.262<br/>samples = 56<br/>value = [71, 13]<br/>class = No Purchase>, fillcolor="#ea985d"] ;
709 -> 710 ;
711 [label=<Informational_Duration &le; 78.65<br/>gini = 0.178<br/>samples = 47<br/>value = [64.0, 7.0]<br/>class = No Purchase>, fillcolor="#e88f4f"] ;
710 -> 711 ;
712 [label=<Region &le; 3.5<br/>gini = 0.157<br/>samples = 46<br/>value = [64, 6]<br/>class = No Purchase>, fillcolor="#e78d4c"] ;
711 -> 712 ;
713 [label=<gini = 0.0<br/>samples = 16<br/>value = [25, 0]<br/>class = No Purchase>, fillcolor="#e58139"] ;
712 -> 713 ;
714 [label=<ProductRelated &le; 10.5<br/>gini = 0.231<br/>samples = 30<br/>value = [39, 6]<br/>class = No Purchase>, fillcolor="#e99457"] ;
712 -> 714 ;
715 [label=<VisitorType &le; 0.5<br/>gini = 0.463<br/>samples = 7<br/>value = [7, 4]<br/>class = No Purchase>, fillcolor="#f4c9aa"] ;
714 -> 715 ;
716 [label=<gini = 0.0<br/>samples = 1<br/>value = [0, 3]<br/>class = Purchase>, fillcolor="#399de5"] ;
715 -> 716 ;
717 [label=<ProductRelated &le; 9.5<br/>gini = 0.219<br/>samples = 6<br/>value = [7, 1]<br/>class = No Purchase>, fillcolor="#e99355"] ;
715 -> 717 ;
718 [label=<gini = 0.0<br/>samples = 5<br/>value = [7, 0]<br/>class = No Purchase>, fillcolor="#e58139"] ;
717 -> 718 ;
719 [label=<gini = 0.0<br/>samples = 1<br/>value = [0, 1]<br/>class = Purchase>, fillcolor="#399de5"] ;
717 -> 719 ;
720 [label=<ProductRelated_Duration &le; 1141.878<br/>gini = 0.111<br/>samples = 23<br/>value = [32, 2]<br/>class = No Purchase>, fillcolor="#e78945"] ;
714 -> 720 ;
721 [label=<gini = 0.0<br/>samples = 15<br/>value = [21, 0]<br/>class = No Purchase>, fillcolor="#e58139"] ;
720 -> 721 ;
722 [label=<Informational &le; 2.5<br/>gini = 0.26<br/>samples = 8<br/>value = [11, 2]<br/>class = No Purchase>, fillcolor="#ea985d"] ;
720 -> 722 ;
723 [label=<ProductRelated_Duration &le; 1244.162<br/>gini = 0.153<br/>samples = 7<br/>value = [11, 1]<br/>class = No Purchase>, fillcolor="#e78c4b"] ;
722 -> 723 ;
724 [label=<gini = 0.0<br/>samples = 1<br/>value = [0, 1]<br/>class = Purchase>, fillcolor="#399de5"] ;
723 -> 724 ;
725 [label=<gini = 0.0<br/>samples = 6<br/>value = [11, 0]<br/>class = No Purchase>, fillcolor="#e58139"] ;
723 -> 725 ;
726 [label=<gini = 0.0<br/>samples = 1<br/>value = [0, 1]<br/>class = Purchase>, fillcolor="#399de5"] ;
722 -> 726 ;
727 [label=<gini = 0.0<br/>samples = 1<br/>value = [0, 1]<br/>class = Purchase>, fillcolor="#399de5"] ;
711 -> 727 ;
728 [label=<ProductRelated &le; 34.0<br/>gini = 0.497<br/>samples = 9<br/>value = [7, 6]<br/>class = No Purchase>, fillcolor="#fbede3"] ;
710 -> 728 ;
729 [label=<gini = 0.0<br/>samples = 3<br/>value = [0, 5]<br/>class = Purchase>, fillcolor="#399de5"] ;
728 -> 729 ;
730 [label=<TrafficType &le; 16.5<br/>gini = 0.219<br/>samples = 6<br/>value = [7, 1]<br/>class = No Purchase>, fillcolor="#e99355"] ;
728 -> 730 ;
731 [label=<gini = 0.0<br/>samples = 5<br/>value = [7, 0]<br/>class = No Purchase>, fillcolor="#e58139"] ;
730 -> 731 ;
732 [label=<gini = 0.0<br/>samples = 1<br/>value = [0, 1]<br/>class = Purchase>, fillcolor="#399de5"] ;
730 -> 732 ;
733 [label=<gini = 0.0<br/>samples = 10<br/>value = [21, 0]<br/>class = No Purchase>, fillcolor="#e58139"] ;
709 -> 733 ;
734 [label=<gini = 0.0<br/>samples = 45<br/>value = [72, 0]<br/>class = No Purchase>, fillcolor="#e58139"] ;
708 -> 734 ;
735 [label=<gini = 0.0<br/>samples = 50<br/>value = [84, 0]<br/>class = No Purchase>, fillcolor="#e58139"] ;
657 -> 735 ;
736 [label=<Browser &le; 3.5<br/>gini = 0.234<br/>samples = 20<br/>value = [32, 5]<br/>class = No Purchase>, fillcolor="#e99558"] ;
646 -> 736 ;
737 [label=<gini = 0.0<br/>samples = 19<br/>value = [32, 0]<br/>class = No Purchase>, fillcolor="#e58139"] ;
736 -> 737 ;
